[
  { "bias": [
      0.233805,
      -0.22683,
      -0.216248,
      0.462455,
      -0.348124,
      0.318623
    ],
    "weight": [
      -4.69805,
      2.32423,
      -0.622636,
      -2.91632,
      3.29549,
      1.77378,
      -3.25381,
      1.69307,
      2.601,
      4.75961,
      -0.528344,
      4.34432,
      -1.95705,
      0.625507,
      2.67454,
      3.46554,
      -1.84441,
      -1.02762,
      6.03634,
      0.954822,
      -9.93062,
      -4.98909,
      2.18009,
      -9.16489,
      -1.74841,
      1.68797,
      -2.73291,
      2.24545,
      -1.47156,
      1.36356,
      -1.7735,
      2.24996,
      -2.21225,
      5.8255,
      -5.87453,
      -0.571715,
      -3.25381,
      1.69307,
      2.601,
      4.75961,
      -0.528344,
      4.34432,
      -1.95705,
      0.625507,
      2.67454,
      3.46554,
      -1.84441,
      -1.02762,
      6.03634,
      0.954822,
      -9.93062,
      -4.98909,
      2.18009,
      -9.16489,
      -1.74841,
      1.68797,
      -2.73291,
      2.24545,
      -1.47156,
      1.36356,
      -1.7735,
      2.24996,
      -2.21225,
      5.8255,
      -5.87453,
      -0.571715,
      -1.13969,
      1.47449,
      -0.991066,
      2.17742,
      -2.73546,
      0.679411,
      -1.95705,
      0.625507,
      2.67454,
      3.46554,
      -1.84441,
      -1.02762,
      6.03634,
      0.954822,
      -9.93062,
      -4.98909,
      2.18009,
      -9.16489,
      -1.74841,
      1.68797,
      -2.73291,
      2.24545,
      -1.47156,
      1.36356,
      -1.7735,
      2.24996,
      -2.21225,
      5.8255,
      -5.87453,
      -0.571715,
      -1.13969,
      1.47449,
      -0.991066,
      2.17742,
      -2.73546,
      0.679411,
      -4.0471,
      2.8803,
      1.75517,
      -9.87769,
      -8.34666,
      8.96257,
      6.03634,
      0.954822,
      -9.93062,
      -4.98909,
      2.18009,
      -9.16489,
      -1.74841,
      1.68797,
      -2.73291,
      2.24545,
      -1.47156,
      1.36356,
      -1.7735,
      2.24996,
      -2.21225,
      5.8255,
      -5.87453,
      -0.571715,
      -1.13969,
      1.47449,
      -0.991066,
      2.17742,
      -2.73546,
      0.679411,
      -4.0471,
      2.8803,
      1.75517,
      -9.87769,
      -8.34666,
      8.96257,
      0.625718,
      -0.757164,
      -0.785324,
      -0.147648,
      0.684641,
      -0.186409,
      -1.74841,
      1.68797,
      -2.73291,
      2.24545,
      -1.47156,
      1.36356,
      -1.7735,
      2.24996,
      -2.21225,
      5.8255,
      -5.87453,
      -0.571715,
      -1.13969,
      1.47449,
      -0.991066,
      2.17742,
      -2.73546,
      0.679411,
      -4.0471,
      2.8803,
      1.75517,
      -9.87769,
      -8.34666,
      8.96257,
      0.625718,
      -0.757164,
      -0.785324,
      -0.147648,
      0.684641,
      -0.186409,
      -1.34869,
      -0.090547,
      2.4474,
      2.02916,
      1.14853,
      1.94545,
      -1.7735,
      2.24996,
      -2.21225,
      5.8255,
      -5.87453,
      -0.571715,
      -1.13969,
      1.47449,
      -0.991066,
      2.17742,
      -2.73546,
      0.679411,
      -4.0471,
      2.8803,
      1.75517,
      -9.87769,
      -8.34666,
      8.96257,
      0.625718,
      -0.757164,
      -0.785324,
      -0.147648,
      0.684641,
      -0.186409,
      -1.34869,
      -0.090547,
      2.4474,
      2.02916,
      1.14853,
      1.94545,
      0.453222,
      -0.544205,
      0.308935,
      1.02602,
      -0.231374,
      -0.848871
    ]
  }
]
