[
  { "bias": [
      0.961454,
      -0.899782,
      -0.257763,
      0.134351,
      0.134431,
      -0.309778
    ],
    "weight": [
      0.814532,
      -2.59066,
      0.745938,
      3.43085,
      0.781483,
      0.165143,
      -2.01568,
      1.2977,
      1.55255,
      1.57005,
      -0.0398233,
      3.44194,
      -2.53327,
      3.92427,
      1.23056,
      4.9227,
      -5.97031,
      4.49658,
      5.21807,
      1.5381,
      -1.687,
      -1.63145,
      -3.50182,
      -9.76272,
      0.583966,
      2.95792,
      -3.13486,
      -2.70005,
      -3.10875,
      0.379688,
      2.16968,
      -2.1459,
      -0.517921,
      2.91466,
      -1.51593,
      -0.458455,
      -2.01568,
      1.2977,
      1.55255,
      1.57005,
      -0.0398233,
      3.44194,
      -2.53327,
      3.92427,
      1.23056,
      4.9227,
      -5.97031,
      4.49658,
      5.21807,
      1.5381,
      -1.687,
      -1.63145,
      -3.50182,
      -9.76272,
      0.583966,
      2.95792,
      -3.13486,
      -2.70005,
      -3.10875,
      0.379688,
      2.16968,
      -2.1459,
      -0.517921,
      2.91466,
      -1.51593,
      -0.458455,
      -1.12504,
      1.66497,
      -0.270673,
      1.10675,
      0.0734369,
      -7.19036,
      -2.53327,
      3.92427,
      1.23056,
      4.9227,
      -5.97031,
      4.49658,
      5.21807,
      1.5381,
      -1.687,
      -1.63145,
      -3.50182,
      -9.76272,
      0.583966,
      2.95792,
      -3.13486,
      -2.70005,
      -3.10875,
      0.379688,
      2.16968,
      -2.1459,
      -0.517921,
      2.91466,
      -1.51593,
      -0.458455,
      -1.12504,
      1.66497,
      -0.270673,
      1.10675,
      0.0734369,
      -7.19036,
      -3.91496,
      3.09939,
      1.15884,
      0.212311,
      -5.93246,
      11.6931,
      5.21807,
      1.5381,
      -1.687,
      -1.63145,
      -3.50182,
      -9.76272,
      0.583966,
      2.95792,
      -3.13486,
      -2.70005,
      -3.10875,
      0.379688,
      2.16968,
      -2.1459,
      -0.517921,
      2.91466,
      -1.51593,
      -0.458455,
      -1.12504,
      1.66497,
      -0.270673,
      1.10675,
      0.0734369,
      -7.19036,
      -3.91496,
      3.09939,
      1.15884,
      0.212311,
      -5.93246,
      11.6931,
      -1.89574,
      -2.02838,
      4.12934,
      3.03296,
      -0.0851604,
      -1.98403,
      0.583966,
      2.95792,
      -3.13486,
      -2.70005,
      -3.10875,
      0.379688,
      2.16968,
      -2.1459,
      -0.517921,
      2.91466,
      -1.51593,
      -0.458455,
      -1.12504,
      1.66497,
      -0.270673,
      1.10675,
      0.0734369,
      -7.19036,
      -3.91496,
      3.09939,
      1.15884,
      0.212311,
      -5.93246,
      11.6931,
      -1.89574,
      -2.02838,
      4.12934,
      3.03296,
      -0.0851604,
      -1.98403,
      0.291576,
      4.35861,
      -4.08547,
      -2.69724,
      -1.48905,
      6.29972,
      2.16968,
      -2.1459,
      -0.517921,
      2.91466,
      -1.51593,
      -0.458455,
      -1.12504,
      1.66497,
      -0.270673,
      1.10675,
      0.0734369,
      -7.19036,
      -3.91496,
      3.09939,
      1.15884,
      0.212311,
      -5.93246,
      11.6931,
      -1.89574,
      -2.02838,
      4.12934,
      3.03296,
      -0.0851604,
      -1.98403,
      0.291576,
      4.35861,
      -4.08547,
      -2.69724,
      -1.48905,
      6.29972,
      2.4122,
      0.649635,
      -3.12869,
      4.0071,
      -2.81713,
      3.36955
    ]
  }
]
