[
  { "bias": [
      0.893253,
      -1.01344,
      -5.27372,
      0.0907474,
      0.0771601,
      -0.338359
    ],
    "weight": [
      0.930492,
      -2.14136,
      -0.234438,
      3.2519,
      0.572485,
      0.153905,
      -1.41564,
      1.26054,
      1.5011,
      1.18166,
      -0.418132,
      2.97164,
      -1.88374,
      6.13299,
      1.67294,
      5.64572,
      -4.7305,
      5.00801,
      3.73878,
      1.25255,
      0.635403,
      0.168888,
      -2.4281,
      -7.61136,
      0.357207,
      1.51788,
      -6.75583,
      -1.9469,
      -2.47245,
      0.357945,
      1.96371,
      -1.85464,
      -5.24703,
      2.34802,
      -1.36826,
      -0.657968,
      -1.41564,
      1.26054,
      1.5011,
      1.18166,
      -0.418132,
      2.97164,
      -1.88374,
      6.13299,
      1.67294,
      5.64572,
      -4.7305,
      5.00801,
      3.73878,
      1.25255,
      0.635403,
      0.168888,
      -2.4281,
      -7.61136,
      0.357207,
      1.51788,
      -6.75583,
      -1.9469,
      -2.47245,
      0.357945,
      1.96371,
      -1.85464,
      -5.24703,
      2.34802,
      -1.36826,
      -0.657968,
      -0.715947,
      1.53018,
      -4.99994,
      1.6322,
      0.410208,
      -5.82705,
      -1.88374,
      6.13299,
      1.67294,
      5.64572,
      -4.7305,
      5.00801,
      3.73878,
      1.25255,
      0.635403,
      0.168888,
      -2.4281,
      -7.61136,
      0.357207,
      1.51788,
      -6.75583,
      -1.9469,
      -2.47245,
      0.357945,
      1.96371,
      -1.85464,
      -5.24703,
      2.34802,
      -1.36826,
      -0.657968,
      -0.715947,
      1.53018,
      -4.99994,
      1.6322,
      0.410208,
      -5.82705,
      -5.22061,
      7.1125,
      -8.4251,
      1.01428,
      -5.35404,
      9.90174,
      3.73878,
      1.25255,
      0.635403,
      0.168888,
      -2.4281,
      -7.61136,
      0.357207,
      1.51788,
      -6.75583,
      -1.9469,
      -2.47245,
      0.357945,
      1.96371,
      -1.85464,
      -5.24703,
      2.34802,
      -1.36826,
      -0.657968,
      -0.715947,
      1.53018,
      -4.99994,
      1.6322,
      0.410208,
      -5.82705,
      -5.22061,
      7.1125,
      -8.4251,
      1.01428,
      -5.35404,
      9.90174,
      -0.210135,
      -0.836599,
      0.105996,
      2.66535,
      0.212525,
      -1.62646,
      0.357207,
      1.51788,
      -6.75583,
      -1.9469,
      -2.47245,
      0.357945,
      1.96371,
      -1.85464,
      -5.24703,
      2.34802,
      -1.36826,
      -0.657968,
      -0.715947,
      1.53018,
      -4.99994,
      1.6322,
      0.410208,
      -5.82705,
      -5.22061,
      7.1125,
      -8.4251,
      1.01428,
      -5.35404,
      9.90174,
      -0.210135,
      -0.836599,
      0.105996,
      2.66535,
      0.212525,
      -1.62646,
      -0.371114,
      1.95117,
      0.290336,
      -1.99608,
      -1.23739,
      5.91237,
      1.96371,
      -1.85464,
      -5.24703,
      2.34802,
      -1.36826,
      -0.657968,
      -0.715947,
      1.53018,
      -4.99994,
      1.6322,
      0.410208,
      -5.82705,
      -5.22061,
      7.1125,
      -8.4251,
      1.01428,
      -5.35404,
      9.90174,
      -0.210135,
      -0.836599,
      0.105996,
      2.66535,
      0.212525,
      -1.62646,
      -0.371114,
      1.95117,
      0.290336,
      -1.99608,
      -1.23739,
      5.91237,
      0.927482,
      -0.830959,
      0.814086,
      3.00681,
      -2.74217,
      1.8204
    ]
  }
]
