[
  { "bias": [
      0.243272,
      -0.253712,
      -5.27266,
      0.444248,
      -0.356511,
      0.290078
    ],
    "weight": [
      -4.8243,
      2.7729,
      -1.72765,
      -2.84854,
      3.35193,
      1.90373,
      -3.38956,
      2.25677,
      2.33197,
      4.59108,
      -0.705084,
      4.21538,
      -1.45518,
      1.82,
      2.17476,
      3.44375,
      -1.71578,
      -1.00032,
      5.08386,
      -0.363848,
      1.59565,
      -4.73413,
      2.14735,
      -9.02421,
      -1.5211,
      1.05104,
      -7.29956,
      2.13902,
      -1.45009,
      1.49144,
      -1.75643,
      2.08628,
      -6.18245,
      5.78,
      -5.77923,
      -0.448481,
      -3.38956,
      2.25677,
      2.33197,
      4.59108,
      -0.705084,
      4.21538,
      -1.45518,
      1.82,
      2.17476,
      3.44375,
      -1.71578,
      -1.00032,
      5.08386,
      -0.363848,
      1.59565,
      -4.73413,
      2.14735,
      -9.02421,
      -1.5211,
      1.05104,
      -7.29956,
      2.13902,
      -1.45009,
      1.49144,
      -1.75643,
      2.08628,
      -6.18245,
      5.78,
      -5.77923,
      -0.448481,
      -0.912126,
      1.39882,
      -5.63059,
      2.30058,
      -2.70208,
      0.754937,
      -1.45518,
      1.82,
      2.17476,
      3.44375,
      -1.71578,
      -1.00032,
      5.08386,
      -0.363848,
      1.59565,
      -4.73413,
      2.14735,
      -9.02421,
      -1.5211,
      1.05104,
      -7.29956,
      2.13902,
      -1.45009,
      1.49144,
      -1.75643,
      2.08628,
      -6.18245,
      5.78,
      -5.77923,
      -0.448481,
      -0.912126,
      1.39882,
      -5.63059,
      2.30058,
      -2.70208,
      0.754937,
      -3.15804,
      4.53108,
      -6.71598,
      -9.78103,
      -8.10669,
      9.28414,
      5.08386,
      -0.363848,
      1.59565,
      -4.73413,
      2.14735,
      -9.02421,
      -1.5211,
      1.05104,
      -7.29956,
      2.13902,
      -1.45009,
      1.49144,
      -1.75643,
      2.08628,
      -6.18245,
      5.78,
      -5.77923,
      -0.448481,
      -0.912126,
      1.39882,
      -5.63059,
      2.30058,
      -2.70208,
      0.754937,
      -3.15804,
      4.53108,
      -6.71598,
      -9.78103,
      -8.10669,
      9.28414,
      0.69641,
      -0.893812,
      -0.934762,
      -0.19937,
      0.621843,
      -0.170755,
      -1.5211,
      1.05104,
      -7.29956,
      2.13902,
      -1.45009,
      1.49144,
      -1.75643,
      2.08628,
      -6.18245,
      5.78,
      -5.77923,
      -0.448481,
      -0.912126,
      1.39882,
      -5.63059,
      2.30058,
      -2.70208,
      0.754937,
      -3.15804,
      4.53108,
      -6.71598,
      -9.78103,
      -8.10669,
      9.28414,
      0.69641,
      -0.893812,
      -0.934762,
      -0.19937,
      0.621843,
      -0.170755,
      -1.17292,
      0.0787903,
      1.70383,
      1.95259,
      1.07282,
      1.87093,
      -1.75643,
      2.08628,
      -6.18245,
      5.78,
      -5.77923,
      -0.448481,
      -0.912126,
      1.39882,
      -5.63059,
      2.30058,
      -2.70208,
      0.754937,
      -3.15804,
      4.53108,
      -6.71598,
      -9.78103,
      -8.10669,
      9.28414,
      0.69641,
      -0.893812,
      -0.934762,
      -0.19937,
      0.621843,
      -0.170755,
      -1.17292,
      0.0787903,
      1.70383,
      1.95259,
      1.07282,
      1.87093,
      0.698115,
      -0.63847,
      1.69708,
      0.902921,
      -0.298552,
      -0.955564
    ]
  }
]
