[
  { "bias": [
      0.84331,
      -0.86053,
      -5.12402,
      0.266543,
      -0.143986,
      0.0213569
    ],
    "weight": [
      -1.29644,
      0.186018,
      -0.147884,
      0.734266,
      1.30125,
      0.54945,
      -1.50937,
      0.937042,
      1.71314,
      1.96666,
      -0.860821,
      3.10376,
      -1.79627,
      3.60558,
      1.41011,
      3.0502,
      -3.67153,
      -1.93335,
      3.74744,
      0.662498,
      0.998177,
      -2.47192,
      0.388336,
      -7.72797,
      -0.553144,
      1.54741,
      -7.91518,
      0.29582,
      -1.37337,
      -0.296196,
      0.779416,
      -0.429846,
      -6.35297,
      4.13474,
      -3.01493,
      -1.25105,
      -1.50937,
      0.937042,
      1.71314,
      1.96666,
      -0.860821,
      3.10376,
      -1.79627,
      3.60558,
      1.41011,
      3.0502,
      -3.67153,
      -1.93335,
      3.74744,
      0.662498,
      0.998177,
      -2.47192,
      0.388336,
      -7.72797,
      -0.553144,
      1.54741,
      -7.91518,
      0.29582,
      -1.37337,
      -0.296196,
      0.779416,
      -0.429846,
      -6.35297,
      4.13474,
      -3.01493,
      -1.25105,
      -0.655282,
      1.38781,
      -5.51931,
      1.58835,
      -0.678303,
      -2.08237,
      -1.79627,
      3.60558,
      1.41011,
      3.0502,
      -3.67153,
      -1.93335,
      3.74744,
      0.662498,
      0.998177,
      -2.47192,
      0.388336,
      -7.72797,
      -0.553144,
      1.54741,
      -7.91518,
      0.29582,
      -1.37337,
      -0.296196,
      0.779416,
      -0.429846,
      -6.35297,
      4.13474,
      -3.01493,
      -1.25105,
      -0.655282,
      1.38781,
      -5.51931,
      1.58835,
      -0.678303,
      -2.08237,
      -3.72804,
      5.53085,
      -9.278,
      -5.61342,
      -6.44882,
      7.82264,
      3.74744,
      0.662498,
      0.998177,
      -2.47192,
      0.388336,
      -7.72797,
      -0.553144,
      1.54741,
      -7.91518,
      0.29582,
      -1.37337,
      -0.296196,
      0.779416,
      -0.429846,
      -6.35297,
      4.13474,
      -3.01493,
      -1.25105,
      -0.655282,
      1.38781,
      -5.51931,
      1.58835,
      -0.678303,
      -2.08237,
      -3.72804,
      5.53085,
      -9.278,
      -5.61342,
      -6.44882,
      7.82264,
      0.367528,
      -0.647943,
      -0.122443,
      0.133764,
      -0.148054,
      0.00845827,
      -0.553144,
      1.54741,
      -7.91518,
      0.29582,
      -1.37337,
      -0.296196,
      0.779416,
      -0.429846,
      -6.35297,
      4.13474,
      -3.01493,
      -1.25105,
      -0.655282,
      1.38781,
      -5.51931,
      1.58835,
      -0.678303,
      -2.08237,
      -3.72804,
      5.53085,
      -9.278,
      -5.61342,
      -6.44882,
      7.82264,
      0.367528,
      -0.647943,
      -0.122443,
      0.133764,
      -0.148054,
      0.00845827,
      -0.727135,
      0.0833397,
      0.90273,
      1.49946,
      0.13535,
      1.1938,
      0.779416,
      -0.429846,
      -6.35297,
      4.13474,
      -3.01493,
      -1.25105,
      -0.655282,
      1.38781,
      -5.51931,
      1.58835,
      -0.678303,
      -2.08237,
      -3.72804,
      5.53085,
      -9.278,
      -5.61342,
      -6.44882,
      7.82264,
      0.367528,
      -0.647943,
      -0.122443,
      0.133764,
      -0.148054,
      0.00845827,
      -0.727135,
      0.0833397,
      0.90273,
      1.49946,
      0.13535,
      1.1938,
      0.477121,
      -0.341249,
      1.66239,
      1.15619,
      -0.931762,
      -1.00451
    ]
  }
]
