[
  { "bias": [
      -0.247296,
      0.197601,
      -5.07367,
      -0.196405,
      0.38607,
      -0.111864
    ],
    "weight": [
      2.04575,
      0.698789,
      -1.98521,
      -0.331777,
      -0.465578,
      -3.87877,
      -1.8253,
      4.17226,
      1.65185,
      -2.91471,
      0.528336,
      2.24546,
      -0.847232,
      -0.437435,
      1.51884,
      1.74576,
      -2.20526,
      4.01891,
      -1.44524,
      5.52777,
      0.381024,
      -0.257276,
      -4.03338,
      1.22568,
      -1.12117,
      -2.8909,
      -7.71184,
      2.67382,
      0.163656,
      -0.769068,
      -5.21706,
      -2.39021,
      -6.42635,
      2.865,
      0.492103,
      0.495311,
      -1.8253,
      4.17226,
      1.65185,
      -2.91471,
      0.528336,
      2.24546,
      -0.847232,
      -0.437435,
      1.51884,
      1.74576,
      -2.20526,
      4.01891,
      -1.44524,
      5.52777,
      0.381024,
      -0.257276,
      -4.03338,
      1.22568,
      -1.12117,
      -2.8909,
      -7.71184,
      2.67382,
      0.163656,
      -0.769068,
      -5.21706,
      -2.39021,
      -6.42635,
      2.865,
      0.492103,
      0.495311,
      -3.10297,
      -2.86577,
      -5.4009,
      -0.330761,
      1.11589,
      1.9788,
      -0.847232,
      -0.437435,
      1.51884,
      1.74576,
      -2.20526,
      4.01891,
      -1.44524,
      5.52777,
      0.381024,
      -0.257276,
      -4.03338,
      1.22568,
      -1.12117,
      -2.8909,
      -7.71184,
      2.67382,
      0.163656,
      -0.769068,
      -5.21706,
      -2.39021,
      -6.42635,
      2.865,
      0.492103,
      0.495311,
      -3.10297,
      -2.86577,
      -5.4009,
      -0.330761,
      1.11589,
      1.9788,
      6.82554,
      -6.08391,
      -6.5502,
      -3.74825,
      -0.15006,
      1.87686,
      -1.44524,
      5.52777,
      0.381024,
      -0.257276,
      -4.03338,
      1.22568,
      -1.12117,
      -2.8909,
      -7.71184,
      2.67382,
      0.163656,
      -0.769068,
      -5.21706,
      -2.39021,
      -6.42635,
      2.865,
      0.492103,
      0.495311,
      -3.10297,
      -2.86577,
      -5.4009,
      -0.330761,
      1.11589,
      1.9788,
      6.82554,
      -6.08391,
      -6.5502,
      -3.74825,
      -0.15006,
      1.87686,
      0.897797,
      -0.0995085,
      -1.19221,
      -0.71124,
      -0.309017,
      -0.372761,
      -1.12117,
      -2.8909,
      -7.71184,
      2.67382,
      0.163656,
      -0.769068,
      -5.21706,
      -2.39021,
      -6.42635,
      2.865,
      0.492103,
      0.495311,
      -3.10297,
      -2.86577,
      -5.4009,
      -0.330761,
      1.11589,
      1.9788,
      6.82554,
      -6.08391,
      -6.5502,
      -3.74825,
      -0.15006,
      1.87686,
      0.897797,
      -0.0995085,
      -1.19221,
      -0.71124,
      -0.309017,
      -0.372761,
      0.0238587,
      -2.2269,
      -0.0535449,
      -1.08135,
      -0.634986,
      4.06973,
      -5.21706,
      -2.39021,
      -6.42635,
      2.865,
      0.492103,
      0.495311,
      -3.10297,
      -2.86577,
      -5.4009,
      -0.330761,
      1.11589,
      1.9788,
      6.82554,
      -6.08391,
      -6.5502,
      -3.74825,
      -0.15006,
      1.87686,
      0.897797,
      -0.0995085,
      -1.19221,
      -0.71124,
      -0.309017,
      -0.372761,
      0.0238587,
      -2.2269,
      -0.0535449,
      -1.08135,
      -0.634986,
      4.06973,
      -0.212221,
      0.124732,
      0.722045,
      -1.71104,
      0.210006,
      3.64237
    ]
  }
]
