[
  { "bias": [
      0.158335,
      -0.263865,
      0.137546,
      -0.354807,
      0.23486,
      0.0704281
    ],
    "weight": [
      -0.316327,
      -1.29453,
      2.43711,
      0.858453,
      -0.706842,
      0.225536,
      -0.505522,
      0.136693,
      0.492231,
      0.361945,
      -0.742392,
      1.28681,
      -1.9051,
      3.18956,
      0.776019,
      2.46204,
      -3.49745,
      2.11425,
      1.0579,
      5.46965,
      -0.785567,
      0.583891,
      -3.60516,
      -1.54767,
      -0.930856,
      1.9268,
      -1.15686,
      -0.0959006,
      -0.80985,
      -0.0320226,
      -0.766716,
      -1.95692,
      0.822816,
      2.31892,
      0.0806444,
      -1.82673,
      -0.505522,
      0.136693,
      0.492231,
      0.361945,
      -0.742392,
      1.28681,
      -1.9051,
      3.18956,
      0.776019,
      2.46204,
      -3.49745,
      2.11425,
      1.0579,
      5.46965,
      -0.785567,
      0.583891,
      -3.60516,
      -1.54767,
      -0.930856,
      1.9268,
      -1.15686,
      -0.0959006,
      -0.80985,
      -0.0320226,
      -0.766716,
      -1.95692,
      0.822816,
      2.31892,
      0.0806444,
      -1.82673,
      -2.42993,
      1.18644,
      1.26256,
      0.718929,
      0.648893,
      -2.23663,
      -1.9051,
      3.18956,
      0.776019,
      2.46204,
      -3.49745,
      2.11425,
      1.0579,
      5.46965,
      -0.785567,
      0.583891,
      -3.60516,
      -1.54767,
      -0.930856,
      1.9268,
      -1.15686,
      -0.0959006,
      -0.80985,
      -0.0320226,
      -0.766716,
      -1.95692,
      0.822816,
      2.31892,
      0.0806444,
      -1.82673,
      -2.42993,
      1.18644,
      1.26256,
      0.718929,
      0.648893,
      -2.23663,
      2.18511,
      -2.1578,
      1.16762,
      -4.78126,
      -0.274597,
      1.46907,
      1.0579,
      5.46965,
      -0.785567,
      0.583891,
      -3.60516,
      -1.54767,
      -0.930856,
      1.9268,
      -1.15686,
      -0.0959006,
      -0.80985,
      -0.0320226,
      -0.766716,
      -1.95692,
      0.822816,
      2.31892,
      0.0806444,
      -1.82673,
      -2.42993,
      1.18644,
      1.26256,
      0.718929,
      0.648893,
      -2.23663,
      2.18511,
      -2.1578,
      1.16762,
      -4.78126,
      -0.274597,
      1.46907,
      1.56592,
      -0.629243,
      -0.228346,
      -1.30118,
      0.296828,
      -0.930753,
      -0.930856,
      1.9268,
      -1.15686,
      -0.0959006,
      -0.80985,
      -0.0320226,
      -0.766716,
      -1.95692,
      0.822816,
      2.31892,
      0.0806444,
      -1.82673,
      -2.42993,
      1.18644,
      1.26256,
      0.718929,
      0.648893,
      -2.23663,
      2.18511,
      -2.1578,
      1.16762,
      -4.78126,
      -0.274597,
      1.46907,
      1.56592,
      -0.629243,
      -0.228346,
      -1.30118,
      0.296828,
      -0.930753,
      -1.13167,
      1.23756,
      -0.43845,
      -2.12353,
      -0.181026,
      4.74046,
      -0.766716,
      -1.95692,
      0.822816,
      2.31892,
      0.0806444,
      -1.82673,
      -2.42993,
      1.18644,
      1.26256,
      0.718929,
      0.648893,
      -2.23663,
      2.18511,
      -2.1578,
      1.16762,
      -4.78126,
      -0.274597,
      1.46907,
      1.56592,
      -0.629243,
      -0.228346,
      -1.30118,
      0.296828,
      -0.930753,
      -1.13167,
      1.23756,
      -0.43845,
      -2.12353,
      -0.181026,
      4.74046,
      0.956116,
      -0.643502,
      -1.01165,
      -1.10455,
      -0.168567,
      4.11088
    ]
  }
]
