[
  { "bias": [
      -0.251463,
      0.200549,
      -5.17367,
      -0.20066,
      0.390775,
      -0.112838
    ],
    "weight": [
      2.05877,
      0.709307,
      -1.98521,
      -0.319309,
      -0.473669,
      -3.95013,
      -1.87583,
      4.22831,
      1.65185,
      -2.93383,
      0.54265,
      2.27361,
      -0.854145,
      -0.439583,
      1.51884,
      1.77701,
      -2.23508,
      4.0665,
      -1.47205,
      5.58871,
      0.381024,
      -0.255509,
      -4.08204,
      1.26097,
      -1.13013,
      -2.93916,
      -7.71184,
      2.68579,
      0.16265,
      -0.758615,
      -5.2842,
      -2.40581,
      -6.42635,
      2.90004,
      0.481578,
      0.505542,
      -1.87583,
      4.22831,
      1.65185,
      -2.93383,
      0.54265,
      2.27361,
      -0.854145,
      -0.439583,
      1.51884,
      1.77701,
      -2.23508,
      4.0665,
      -1.47205,
      5.58871,
      0.381024,
      -0.255509,
      -4.08204,
      1.26097,
      -1.13013,
      -2.93916,
      -7.71184,
      2.68579,
      0.16265,
      -0.758615,
      -5.2842,
      -2.40581,
      -6.42635,
      2.90004,
      0.481578,
      0.505542,
      -3.13958,
      -2.90445,
      -5.4009,
      -0.341588,
      1.11749,
      2.01715,
      -0.854145,
      -0.439583,
      1.51884,
      1.77701,
      -2.23508,
      4.0665,
      -1.47205,
      5.58871,
      0.381024,
      -0.255509,
      -4.08204,
      1.26097,
      -1.13013,
      -2.93916,
      -7.71184,
      2.68579,
      0.16265,
      -0.758615,
      -5.2842,
      -2.40581,
      -6.42635,
      2.90004,
      0.481578,
      0.505542,
      -3.13958,
      -2.90445,
      -5.4009,
      -0.341588,
      1.11749,
      2.01715,
      6.93541,
      -6.18178,
      -6.5502,
      -3.81028,
      -0.152752,
      1.90694,
      -1.47205,
      5.58871,
      0.381024,
      -0.255509,
      -4.08204,
      1.26097,
      -1.13013,
      -2.93916,
      -7.71184,
      2.68579,
      0.16265,
      -0.758615,
      -5.2842,
      -2.40581,
      -6.42635,
      2.90004,
      0.481578,
      0.505542,
      -3.13958,
      -2.90445,
      -5.4009,
      -0.341588,
      1.11749,
      2.01715,
      6.93541,
      -6.18178,
      -6.5502,
      -3.81028,
      -0.152752,
      1.90694,
      0.907044,
      -0.100834,
      -1.19221,
      -0.722754,
      -0.313523,
      -0.379429,
      -1.13013,
      -2.93916,
      -7.71184,
      2.68579,
      0.16265,
      -0.758615,
      -5.2842,
      -2.40581,
      -6.42635,
      2.90004,
      0.481578,
      0.505542,
      -3.13958,
      -2.90445,
      -5.4009,
      -0.341588,
      1.11749,
      2.01715,
      6.93541,
      -6.18178,
      -6.5502,
      -3.81028,
      -0.152752,
      1.90694,
      0.907044,
      -0.100834,
      -1.19221,
      -0.722754,
      -0.313523,
      -0.379429,
      0.0319183,
      -2.28025,
      -0.0535449,
      -1.08432,
      -0.639303,
      4.1177,
      -5.2842,
      -2.40581,
      -6.42635,
      2.90004,
      0.481578,
      0.505542,
      -3.13958,
      -2.90445,
      -5.4009,
      -0.341588,
      1.11749,
      2.01715,
      6.93541,
      -6.18178,
      -6.5502,
      -3.81028,
      -0.152752,
      1.90694,
      0.907044,
      -0.100834,
      -1.19221,
      -0.722754,
      -0.313523,
      -0.379429,
      0.0319183,
      -2.28025,
      -0.0535449,
      -1.08432,
      -0.639303,
      4.1177,
      -0.21609,
      0.135713,
      0.722045,
      -1.72713,
      0.215339,
      3.67713
    ]
  }
]
