[
  { "bias": [
      -0.0947131,
      -0.116548,
      0.205844,
      -0.352467,
      0.0488038,
      0.665799
    ],
    "weight": [
      -2.72791,
      1.5915,
      2.02044,
      -2.47752,
      1.12802,
      1.53457,
      -2.1947,
      -1.57112,
      0.786158,
      3.04998,
      -0.0485646,
      2.03208,
      -0.485794,
      -1.66648,
      4.30001,
      1.75918,
      -0.91328,
      0.675276,
      1.60859,
      6.73222,
      -7.23277,
      0.131138,
      -5.07546,
      -1.18881,
      -3.9281,
      0.704431,
      -2.73328,
      0.834743,
      0.595196,
      1.36896,
      -5.97296,
      1.86982,
      -0.688017,
      4.32986,
      -0.63909,
      -0.711513,
      -2.1947,
      -1.57112,
      0.786158,
      3.04998,
      -0.0485646,
      2.03208,
      -0.485794,
      -1.66648,
      4.30001,
      1.75918,
      -0.91328,
      0.675276,
      1.60859,
      6.73222,
      -7.23277,
      0.131138,
      -5.07546,
      -1.18881,
      -3.9281,
      0.704431,
      -2.73328,
      0.834743,
      0.595196,
      1.36896,
      -5.97296,
      1.86982,
      -0.688017,
      4.32986,
      -0.63909,
      -0.711513,
      -2.38369,
      -0.988055,
      -0.902347,
      1.31191,
      0.382255,
      0.611548,
      -0.485794,
      -1.66648,
      4.30001,
      1.75918,
      -0.91328,
      0.675276,
      1.60859,
      6.73222,
      -7.23277,
      0.131138,
      -5.07546,
      -1.18881,
      -3.9281,
      0.704431,
      -2.73328,
      0.834743,
      0.595196,
      1.36896,
      -5.97296,
      1.86982,
      -0.688017,
      4.32986,
      -0.63909,
      -0.711513,
      -2.38369,
      -0.988055,
      -0.902347,
      1.31191,
      0.382255,
      0.611548,
      4.16359,
      -3.44968,
      1.07537,
      -7.25659,
      -1.89725,
      3.46405,
      1.60859,
      6.73222,
      -7.23277,
      0.131138,
      -5.07546,
      -1.18881,
      -3.9281,
      0.704431,
      -2.73328,
      0.834743,
      0.595196,
      1.36896,
      -5.97296,
      1.86982,
      -0.688017,
      4.32986,
      -0.63909,
      -0.711513,
      -2.38369,
      -0.988055,
      -0.902347,
      1.31191,
      0.382255,
      0.611548,
      4.16359,
      -3.44968,
      1.07537,
      -7.25659,
      -1.89725,
      3.46405,
      1.67683,
      -0.43825,
      -0.011399,
      -0.419479,
      -0.698205,
      -0.831846,
      -3.9281,
      0.704431,
      -2.73328,
      0.834743,
      0.595196,
      1.36896,
      -5.97296,
      1.86982,
      -0.688017,
      4.32986,
      -0.63909,
      -0.711513,
      -2.38369,
      -0.988055,
      -0.902347,
      1.31191,
      0.382255,
      0.611548,
      4.16359,
      -3.44968,
      1.07537,
      -7.25659,
      -1.89725,
      3.46405,
      1.67683,
      -0.43825,
      -0.011399,
      -0.419479,
      -0.698205,
      -0.831846,
      -1.45551,
      -1.61086,
      1.17624,
      -1.39981,
      1.44924,
      3.54045,
      -5.97296,
      1.86982,
      -0.688017,
      4.32986,
      -0.63909,
      -0.711513,
      -2.38369,
      -0.988055,
      -0.902347,
      1.31191,
      0.382255,
      0.611548,
      4.16359,
      -3.44968,
      1.07537,
      -7.25659,
      -1.89725,
      3.46405,
      1.67683,
      -0.43825,
      -0.011399,
      -0.419479,
      -0.698205,
      -0.831846,
      -1.45551,
      -1.61086,
      1.17624,
      -1.39981,
      1.44924,
      3.54045,
      -0.176817,
      -0.720081,
      -1.05396,
      -1.54297,
      0.779779,
      1.86967
    ]
  }
]
