[
  { "bias": [
      0.218146,
      0.178571,
      -8.87387,
      -0.174684,
      0.272834,
      -0.632557
    ],
    "weight": [
      1.93615,
      0.955629,
      -1.39349,
      -0.791796,
      0.0311466,
      -3.7153,
      -3.55058,
      8.03097,
      0.921965,
      -1.88976,
      -0.168014,
      2.76363,
      -2.4936,
      1.22915,
      1.47056,
      2.66372,
      -2.96616,
      4.79559,
      1.47369,
      -5.27614,
      1.20935,
      0.0778115,
      4.56876,
      -1.57055,
      1.66118,
      -3.16957,
      -5.26441,
      2.55927,
      -0.795124,
      -1.41955,
      -2.50488,
      -2.43344,
      -4.84409,
      3.06526,
      -0.594978,
      -0.272508,
      -3.55058,
      8.03097,
      0.921965,
      -1.88976,
      -0.168014,
      2.76363,
      -2.4936,
      1.22915,
      1.47056,
      2.66372,
      -2.96616,
      4.79559,
      1.47369,
      -5.27614,
      1.20935,
      0.0778115,
      4.56876,
      -1.57055,
      1.66118,
      -3.16957,
      -5.26441,
      2.55927,
      -0.795124,
      -1.41955,
      -2.50488,
      -2.43344,
      -4.84409,
      3.06526,
      -0.594978,
      -0.272508,
      -1.46765,
      -3.78612,
      -4.81965,
      0.128672,
      0.0901932,
      1.92073,
      -2.4936,
      1.22915,
      1.47056,
      2.66372,
      -2.96616,
      4.79559,
      1.47369,
      -5.27614,
      1.20935,
      0.0778115,
      4.56876,
      -1.57055,
      1.66118,
      -3.16957,
      -5.26441,
      2.55927,
      -0.795124,
      -1.41955,
      -2.50488,
      -2.43344,
      -4.84409,
      3.06526,
      -0.594978,
      -0.272508,
      -1.46765,
      -3.78612,
      -4.81965,
      0.128672,
      0.0901932,
      1.92073,
      3.05269,
      -17.4368,
      -4.48598,
      -1.58631,
      0.412552,
      2.65827,
      1.47369,
      -5.27614,
      1.20935,
      0.0778115,
      4.56876,
      -1.57055,
      1.66118,
      -3.16957,
      -5.26441,
      2.55927,
      -0.795124,
      -1.41955,
      -2.50488,
      -2.43344,
      -4.84409,
      3.06526,
      -0.594978,
      -0.272508,
      -1.46765,
      -3.78612,
      -4.81965,
      0.128672,
      0.0901932,
      1.92073,
      3.05269,
      -17.4368,
      -4.48598,
      -1.58631,
      0.412552,
      2.65827,
      2.86494,
      -0.373718,
      -1.53832,
      -1.51976,
      -1.66325,
      -1.19019,
      1.66118,
      -3.16957,
      -5.26441,
      2.55927,
      -0.795124,
      -1.41955,
      -2.50488,
      -2.43344,
      -4.84409,
      3.06526,
      -0.594978,
      -0.272508,
      -1.46765,
      -3.78612,
      -4.81965,
      0.128672,
      0.0901932,
      1.92073,
      3.05269,
      -17.4368,
      -4.48598,
      -1.58631,
      0.412552,
      2.65827,
      2.86494,
      -0.373718,
      -1.53832,
      -1.51976,
      -1.66325,
      -1.19019,
      1.90784,
      -3.45411,
      0.133624,
      -1.06085,
      -1.21514,
      5.23839,
      -2.50488,
      -2.43344,
      -4.84409,
      3.06526,
      -0.594978,
      -0.272508,
      -1.46765,
      -3.78612,
      -4.81965,
      0.128672,
      0.0901932,
      1.92073,
      3.05269,
      -17.4368,
      -4.48598,
      -1.58631,
      0.412552,
      2.65827,
      2.86494,
      -0.373718,
      -1.53832,
      -1.51976,
      -1.66325,
      -1.19019,
      1.90784,
      -3.45411,
      0.133624,
      -1.06085,
      -1.21514,
      5.23839,
      -1.01421,
      0.440007,
      0.956668,
      -3.50805,
      1.32895,
      6.7138
    ]
  }
]
