[
  { "bias": [
      1.00655,
      -1.15859,
      -6.07373,
      0.13167,
      0.0963903,
      -0.33794
    ],
    "weight": [
      1.15831,
      -2.44749,
      -0.234438,
      3.66672,
      0.771342,
      0.503968,
      -1.60321,
      1.46867,
      1.5011,
      1.23481,
      -0.365913,
      3.30143,
      -2.05977,
      6.84436,
      1.67294,
      6.35642,
      -5.2536,
      5.62598,
      4.24467,
      0.908668,
      0.635403,
      -0.244522,
      -2.8164,
      -8.53938,
      0.272805,
      1.67333,
      -6.75583,
      -2.15859,
      -2.83085,
      0.516804,
      2.16058,
      -2.12335,
      -5.24703,
      2.63449,
      -1.30217,
      -0.438027,
      -1.60321,
      1.46867,
      1.5011,
      1.23481,
      -0.365913,
      3.30143,
      -2.05977,
      6.84436,
      1.67294,
      6.35642,
      -5.2536,
      5.62598,
      4.24467,
      0.908668,
      0.635403,
      -0.244522,
      -2.8164,
      -8.53938,
      0.272805,
      1.67333,
      -6.75583,
      -2.15859,
      -2.83085,
      0.516804,
      2.16058,
      -2.12335,
      -5.24703,
      2.63449,
      -1.30217,
      -0.438027,
      -0.877556,
      1.68466,
      -4.99994,
      1.87994,
      0.528269,
      -6.50698,
      -2.05977,
      6.84436,
      1.67294,
      6.35642,
      -5.2536,
      5.62598,
      4.24467,
      0.908668,
      0.635403,
      -0.244522,
      -2.8164,
      -8.53938,
      0.272805,
      1.67333,
      -6.75583,
      -2.15859,
      -2.83085,
      0.516804,
      2.16058,
      -2.12335,
      -5.24703,
      2.63449,
      -1.30217,
      -0.438027,
      -0.877556,
      1.68466,
      -4.99994,
      1.87994,
      0.528269,
      -6.50698,
      -5.97973,
      7.97855,
      -8.4251,
      1.32876,
      -5.76762,
      11.2877,
      4.24467,
      0.908668,
      0.635403,
      -0.244522,
      -2.8164,
      -8.53938,
      0.272805,
      1.67333,
      -6.75583,
      -2.15859,
      -2.83085,
      0.516804,
      2.16058,
      -2.12335,
      -5.24703,
      2.63449,
      -1.30217,
      -0.438027,
      -0.877556,
      1.68466,
      -4.99994,
      1.87994,
      0.528269,
      -6.50698,
      -5.97973,
      7.97855,
      -8.4251,
      1.32876,
      -5.76762,
      11.2877,
      -0.246701,
      -0.829101,
      0.105996,
      2.96069,
      0.231125,
      -1.71096,
      0.272805,
      1.67333,
      -6.75583,
      -2.15859,
      -2.83085,
      0.516804,
      2.16058,
      -2.12335,
      -5.24703,
      2.63449,
      -1.30217,
      -0.438027,
      -0.877556,
      1.68466,
      -4.99994,
      1.87994,
      0.528269,
      -6.50698,
      -5.97973,
      7.97855,
      -8.4251,
      1.32876,
      -5.76762,
      11.2877,
      -0.246701,
      -0.829101,
      0.105996,
      2.96069,
      0.231125,
      -1.71096,
      -0.416691,
      2.12827,
      0.290336,
      -2.26288,
      -1.39758,
      6.38133,
      2.16058,
      -2.12335,
      -5.24703,
      2.63449,
      -1.30217,
      -0.438027,
      -0.877556,
      1.68466,
      -4.99994,
      1.87994,
      0.528269,
      -6.50698,
      -5.97973,
      7.97855,
      -8.4251,
      1.32876,
      -5.76762,
      11.2877,
      -0.246701,
      -0.829101,
      0.105996,
      2.96069,
      0.231125,
      -1.71096,
      -0.416691,
      2.12827,
      0.290336,
      -2.26288,
      -1.39758,
      6.38133,
      0.964999,
      -0.803021,
      0.814086,
      3.42479,
      -3.10837,
      2.27686
    ]
  }
]
