[
  { "bias": [
      0.24915,
      0.22309,
      -11.1239,
      -0.223001,
      0.330449,
      -0.756053
    ],
    "weight": [
      2.17294,
      1.14025,
      -1.39349,
      -0.83426,
      0.12724,
      -4.51934,
      -4.26079,
      9.97102,
      0.921965,
      -1.98529,
      -0.239551,
      3.34047,
      -2.95419,
      1.70139,
      1.47056,
      3.33175,
      -3.58019,
      5.46892,
      1.77167,
      -6.10094,
      1.20935,
      0.0161894,
      5.34547,
      -2.16161,
      2.03345,
      -3.76842,
      -5.26441,
      2.69212,
      -0.896144,
      -1.47473,
      -2.80532,
      -2.71099,
      -4.84409,
      3.50579,
      -0.855365,
      -0.257116,
      -4.26079,
      9.97102,
      0.921965,
      -1.98529,
      -0.239551,
      3.34047,
      -2.95419,
      1.70139,
      1.47056,
      3.33175,
      -3.58019,
      5.46892,
      1.77167,
      -6.10094,
      1.20935,
      0.0161894,
      5.34547,
      -2.16161,
      2.03345,
      -3.76842,
      -5.26441,
      2.69212,
      -0.896144,
      -1.47473,
      -2.80532,
      -2.71099,
      -4.84409,
      3.50579,
      -0.855365,
      -0.257116,
      -1.70398,
      -4.4329,
      -4.81965,
      0.0874531,
      -0.0953484,
      2.38677,
      -2.95419,
      1.70139,
      1.47056,
      3.33175,
      -3.58019,
      5.46892,
      1.77167,
      -6.10094,
      1.20935,
      0.0161894,
      5.34547,
      -2.16161,
      2.03345,
      -3.76842,
      -5.26441,
      2.69212,
      -0.896144,
      -1.47473,
      -2.80532,
      -2.71099,
      -4.84409,
      3.50579,
      -0.855365,
      -0.257116,
      -1.70398,
      -4.4329,
      -4.81965,
      0.0874531,
      -0.0953484,
      2.38677,
      3.98996,
      -20.8485,
      -4.48598,
      -2.02692,
      0.354865,
      3.09876,
      1.77167,
      -6.10094,
      1.20935,
      0.0161894,
      5.34547,
      -2.16161,
      2.03345,
      -3.76842,
      -5.26441,
      2.69212,
      -0.896144,
      -1.47473,
      -2.80532,
      -2.71099,
      -4.84409,
      3.50579,
      -0.855365,
      -0.257116,
      -1.70398,
      -4.4329,
      -4.81965,
      0.0874531,
      -0.0953484,
      2.38677,
      3.98996,
      -20.8485,
      -4.48598,
      -2.02692,
      0.354865,
      3.09876,
      3.29379,
      -0.437426,
      -1.53832,
      -1.72776,
      -2.04569,
      -1.38414,
      2.03345,
      -3.76842,
      -5.26441,
      2.69212,
      -0.896144,
      -1.47473,
      -2.80532,
      -2.71099,
      -4.84409,
      3.50579,
      -0.855365,
      -0.257116,
      -1.70398,
      -4.4329,
      -4.81965,
      0.0874531,
      -0.0953484,
      2.38677,
      3.98996,
      -20.8485,
      -4.48598,
      -2.02692,
      0.354865,
      3.09876,
      3.29379,
      -0.437426,
      -1.53832,
      -1.72776,
      -2.04569,
      -1.38414,
      2.42341,
      -3.86826,
      0.133624,
      -1.12427,
      -1.37935,
      6.00304,
      -2.80532,
      -2.71099,
      -4.84409,
      3.50579,
      -0.855365,
      -0.257116,
      -1.70398,
      -4.4329,
      -4.81965,
      0.0874531,
      -0.0953484,
      2.38677,
      3.98996,
      -20.8485,
      -4.48598,
      -2.02692,
      0.354865,
      3.09876,
      3.29379,
      -0.437426,
      -1.53832,
      -1.72776,
      -2.04569,
      -1.38414,
      2.42341,
      -3.86826,
      0.133624,
      -1.12427,
      -1.37935,
      6.00304,
      -1.06109,
      0.630037,
      0.956668,
      -3.98338,
      1.60427,
      7.37651
    ]
  }
]
