[
  { "bias": [
      0.884595,
      -0.829202,
      -0.247301,
      0.10393,
      0.115006,
      -0.31769
    ],
    "weight": [
      0.653965,
      -2.38358,
      0.739973,
      3.1599,
      0.60594,
      -0.0676832,
      -1.8679,
      1.20757,
      1.42228,
      1.50844,
      -0.118367,
      3.2171,
      -2.37657,
      3.73351,
      1.21951,
      4.60371,
      -5.52585,
      4.23448,
      4.85861,
      1.62683,
      -1.62222,
      -1.143,
      -3.17237,
      -9.00806,
      0.62841,
      2.7588,
      -2.94076,
      -2.52065,
      -2.81255,
      0.300636,
      2.04266,
      -1.95523,
      -0.569411,
      2.67656,
      -1.52582,
      -0.569311,
      -1.8679,
      1.20757,
      1.42228,
      1.50844,
      -0.118367,
      3.2171,
      -2.37657,
      3.73351,
      1.21951,
      4.60371,
      -5.52585,
      4.23448,
      4.85861,
      1.62683,
      -1.62222,
      -1.143,
      -3.17237,
      -9.00806,
      0.62841,
      2.7588,
      -2.94076,
      -2.52065,
      -2.81255,
      0.300636,
      2.04266,
      -1.95523,
      -0.569411,
      2.67656,
      -1.52582,
      -0.569311,
      -0.98692,
      1.53458,
      -0.232581,
      1.00998,
      0.0579054,
      -6.66084,
      -2.37657,
      3.73351,
      1.21951,
      4.60371,
      -5.52585,
      4.23448,
      4.85861,
      1.62683,
      -1.62222,
      -1.143,
      -3.17237,
      -9.00806,
      0.62841,
      2.7588,
      -2.94076,
      -2.52065,
      -2.81255,
      0.300636,
      2.04266,
      -1.95523,
      -0.569411,
      2.67656,
      -1.52582,
      -0.569311,
      -0.98692,
      1.53458,
      -0.232581,
      1.00998,
      0.0579054,
      -6.66084,
      -3.67402,
      2.90816,
      1.16417,
      0.0302102,
      -5.60046,
      10.6949,
      4.85861,
      1.62683,
      -1.62222,
      -1.143,
      -3.17237,
      -9.00806,
      0.62841,
      2.7588,
      -2.94076,
      -2.52065,
      -2.81255,
      0.300636,
      2.04266,
      -1.95523,
      -0.569411,
      2.67656,
      -1.52582,
      -0.569311,
      -0.98692,
      1.53458,
      -0.232581,
      1.00998,
      0.0579054,
      -6.66084,
      -3.67402,
      2.90816,
      1.16417,
      0.0302102,
      -5.60046,
      10.6949,
      -1.72096,
      -1.93594,
      3.73283,
      2.82421,
      -0.0764254,
      -1.91902,
      0.62841,
      2.7588,
      -2.94076,
      -2.52065,
      -2.81255,
      0.300636,
      2.04266,
      -1.95523,
      -0.569411,
      2.67656,
      -1.52582,
      -0.569311,
      -0.98692,
      1.53458,
      -0.232581,
      1.00998,
      0.0579054,
      -6.66084,
      -3.67402,
      2.90816,
      1.16417,
      0.0302102,
      -5.60046,
      10.6949,
      -1.72096,
      -1.93594,
      3.73283,
      2.82421,
      -0.0764254,
      -1.91902,
      0.286556,
      4.08385,
      -3.71119,
      -2.46757,
      -1.33998,
      6.00707,
      2.04266,
      -1.95523,
      -0.569411,
      2.67656,
      -1.52582,
      -0.569311,
      -0.98692,
      1.53458,
      -0.232581,
      1.00998,
      0.0579054,
      -6.66084,
      -3.67402,
      2.90816,
      1.16417,
      0.0302102,
      -5.60046,
      10.6949,
      -1.72096,
      -1.93594,
      3.73283,
      2.82421,
      -0.0764254,
      -1.91902,
      0.286556,
      4.08385,
      -3.71119,
      -2.46757,
      -1.33998,
      6.00707,
      2.23719,
      0.528924,
      -2.87636,
      3.6402,
      -2.60281,
      2.94977
    ]
  }
]
