[
  { "bias": [
      0.293146,
      -0.315673,
      -7.77267,
      0.660219,
      -0.536788,
      0.514365
    ],
    "weight": [
      -6.43775,
      4.14655,
      -1.72765,
      -3.80406,
      4.55692,
      2.5846,
      -4.64354,
      3.46265,
      2.33197,
      6.20584,
      -0.569195,
      5.71356,
      -1.90757,
      2.34007,
      2.17476,
      4.84512,
      -2.00006,
      -1.90274,
      6.30889,
      -1.34976,
      1.59565,
      -6.92831,
      2.29062,
      -12.8996,
      -1.94679,
      1.3555,
      -7.29956,
      4.13434,
      -1.96123,
      1.91468,
      -2.48866,
      2.75693,
      -6.18245,
      8.39466,
      -7.66558,
      -0.248294,
      -4.64354,
      3.46265,
      2.33197,
      6.20584,
      -0.569195,
      5.71356,
      -1.90757,
      2.34007,
      2.17476,
      4.84512,
      -2.00006,
      -1.90274,
      6.30889,
      -1.34976,
      1.59565,
      -6.92831,
      2.29062,
      -12.8996,
      -1.94679,
      1.3555,
      -7.29956,
      4.13434,
      -1.96123,
      1.91468,
      -2.48866,
      2.75693,
      -6.18245,
      8.39466,
      -7.66558,
      -0.248294,
      -1.63307,
      2.11742,
      -5.63059,
      3.86292,
      -3.8751,
      1.10106,
      -1.90757,
      2.34007,
      2.17476,
      4.84512,
      -2.00006,
      -1.90274,
      6.30889,
      -1.34976,
      1.59565,
      -6.92831,
      2.29062,
      -12.8996,
      -1.94679,
      1.3555,
      -7.29956,
      4.13434,
      -1.96123,
      1.91468,
      -2.48866,
      2.75693,
      -6.18245,
      8.39466,
      -7.66558,
      -0.248294,
      -1.63307,
      2.11742,
      -5.63059,
      3.86292,
      -3.8751,
      1.10106,
      -4.06522,
      5.37082,
      -6.71598,
      -12.2814,
      -11.2784,
      12.744,
      6.30889,
      -1.34976,
      1.59565,
      -6.92831,
      2.29062,
      -12.8996,
      -1.94679,
      1.3555,
      -7.29956,
      4.13434,
      -1.96123,
      1.91468,
      -2.48866,
      2.75693,
      -6.18245,
      8.39466,
      -7.66558,
      -0.248294,
      -1.63307,
      2.11742,
      -5.63059,
      3.86292,
      -3.8751,
      1.10106,
      -4.06522,
      5.37082,
      -6.71598,
      -12.2814,
      -11.2784,
      12.744,
      1.09244,
      -1.32421,
      -0.934762,
      -0.390873,
      0.8301,
      -0.0365374,
      -1.94679,
      1.3555,
      -7.29956,
      4.13434,
      -1.96123,
      1.91468,
      -2.48866,
      2.75693,
      -6.18245,
      8.39466,
      -7.66558,
      -0.248294,
      -1.63307,
      2.11742,
      -5.63059,
      3.86292,
      -3.8751,
      1.10106,
      -4.06522,
      5.37082,
      -6.71598,
      -12.2814,
      -11.2784,
      12.744,
      1.09244,
      -1.32421,
      -0.934762,
      -0.390873,
      0.8301,
      -0.0365374,
      -1.21087,
      0.0701183,
      1.70383,
      2.80447,
      1.52145,
      2.77176,
      -2.48866,
      2.75693,
      -6.18245,
      8.39466,
      -7.66558,
      -0.248294,
      -1.63307,
      2.11742,
      -5.63059,
      3.86292,
      -3.8751,
      1.10106,
      -4.06522,
      5.37082,
      -6.71598,
      -12.2814,
      -11.2784,
      12.744,
      1.09244,
      -1.32421,
      -0.934762,
      -0.390873,
      0.8301,
      -0.0365374,
      -1.21087,
      0.0701183,
      1.70383,
      2.80447,
      1.52145,
      2.77176,
      1.02373,
      -0.939769,
      1.69708,
      1.36433,
      -0.298208,
      -1.37466
    ]
  }
]
