[
  { "bias": [
      -0.145537,
      -0.254433,
      -0.219557,
      0.190736,
      -0.245801,
      1.1183
    ],
    "weight": [
      -0.512784,
      0.80279,
      0.555507,
      -1.93415,
      1.39361,
      -0.0582074,
      -2.7255,
      1.56819,
      0.407802,
      1.05898,
      0.552299,
      1.15366,
      -2.45665,
      -0.4023,
      2.95839,
      1.10932,
      -0.744559,
      3.74608,
      -1.196,
      -4.36252,
      -6.97543,
      1.43808,
      4.43017,
      1.82252,
      0.205608,
      -2.06127,
      -2.71611,
      2.06802,
      1.10497,
      -2.11797,
      -3.33355,
      -1.26721,
      -5.69291,
      4.03889,
      1.05081,
      -0.199639,
      -2.7255,
      1.56819,
      0.407802,
      1.05898,
      0.552299,
      1.15366,
      -2.45665,
      -0.4023,
      2.95839,
      1.10932,
      -0.744559,
      3.74608,
      -1.196,
      -4.36252,
      -6.97543,
      1.43808,
      4.43017,
      1.82252,
      0.205608,
      -2.06127,
      -2.71611,
      2.06802,
      1.10497,
      -2.11797,
      -3.33355,
      -1.26721,
      -5.69291,
      4.03889,
      1.05081,
      -0.199639,
      -1.55347,
      -0.734268,
      -3.02876,
      1.91775,
      -0.0488789,
      1.49012,
      -2.45665,
      -0.4023,
      2.95839,
      1.10932,
      -0.744559,
      3.74608,
      -1.196,
      -4.36252,
      -6.97543,
      1.43808,
      4.43017,
      1.82252,
      0.205608,
      -2.06127,
      -2.71611,
      2.06802,
      1.10497,
      -2.11797,
      -3.33355,
      -1.26721,
      -5.69291,
      4.03889,
      1.05081,
      -0.199639,
      -1.55347,
      -0.734268,
      -3.02876,
      1.91775,
      -0.0488789,
      1.49012,
      -5.02562,
      -13.0795,
      -3.83869,
      -1.11665,
      1.76739,
      6.24627,
      -1.196,
      -4.36252,
      -6.97543,
      1.43808,
      4.43017,
      1.82252,
      0.205608,
      -2.06127,
      -2.71611,
      2.06802,
      1.10497,
      -2.11797,
      -3.33355,
      -1.26721,
      -5.69291,
      4.03889,
      1.05081,
      -0.199639,
      -1.55347,
      -0.734268,
      -3.02876,
      1.91775,
      -0.0488789,
      1.49012,
      -5.02562,
      -13.0795,
      -3.83869,
      -1.11665,
      1.76739,
      6.24627,
      1.23961,
      0.0519432,
      0.71467,
      0.617556,
      -1.55855,
      -0.481308,
      0.205608,
      -2.06127,
      -2.71611,
      2.06802,
      1.10497,
      -2.11797,
      -3.33355,
      -1.26721,
      -5.69291,
      4.03889,
      1.05081,
      -0.199639,
      -1.55347,
      -0.734268,
      -3.02876,
      1.91775,
      -0.0488789,
      1.49012,
      -5.02562,
      -13.0795,
      -3.83869,
      -1.11665,
      1.76739,
      6.24627,
      1.23961,
      0.0519432,
      0.71467,
      0.617556,
      -1.55855,
      -0.481308,
      -1.66707,
      -0.860901,
      0.643132,
      -0.875458,
      0.127827,
      3.26649,
      -3.33355,
      -1.26721,
      -5.69291,
      4.03889,
      1.05081,
      -0.199639,
      -1.55347,
      -0.734268,
      -3.02876,
      1.91775,
      -0.0488789,
      1.49012,
      -5.02562,
      -13.0795,
      -3.83869,
      -1.11665,
      1.76739,
      6.24627,
      1.23961,
      0.0519432,
      0.71467,
      0.617556,
      -1.55855,
      -0.481308,
      -1.66707,
      -0.860901,
      0.643132,
      -0.875458,
      0.127827,
      3.26649,
      -0.109546,
      -2.50546,
      -1.67577,
      -1.4362,
      1.4872,
      2.57371
    ]
  }
]
