[
  { "bias": [
      0.534971,
      -0.351094,
      0.472416,
      -0.0796956,
      -0.409442,
      0.115451
    ],
    "weight": [
      -0.261045,
      -0.353412,
      2.37828,
      0.885971,
      -0.496868,
      -0.895488,
      -0.132631,
      1.23963,
      2.19473,
      -0.935798,
      -1.4347,
      2.47687,
      -3.58498,
      5.97277,
      1.02812,
      1.51091,
      -3.58215,
      3.7184,
      -0.471124,
      -5.0151,
      -3.10547,
      2.96246,
      5.63494,
      -0.562471,
      1.47848,
      0.335367,
      -5.8203,
      2.19415,
      -0.996991,
      -2.04492,
      1.77704,
      -1.60307,
      -2.62937,
      3.10792,
      -1.02549,
      -1.90552,
      -0.132631,
      1.23963,
      2.19473,
      -0.935798,
      -1.4347,
      2.47687,
      -3.58498,
      5.97277,
      1.02812,
      1.51091,
      -3.58215,
      3.7184,
      -0.471124,
      -5.0151,
      -3.10547,
      2.96246,
      5.63494,
      -0.562471,
      1.47848,
      0.335367,
      -5.8203,
      2.19415,
      -0.996991,
      -2.04492,
      1.77704,
      -1.60307,
      -2.62937,
      3.10792,
      -1.02549,
      -1.90552,
      -0.386146,
      3.06338,
      1.71615,
      1.24637,
      -1.76456,
      -2.76301,
      -3.58498,
      5.97277,
      1.02812,
      1.51091,
      -3.58215,
      3.7184,
      -0.471124,
      -5.0151,
      -3.10547,
      2.96246,
      5.63494,
      -0.562471,
      1.47848,
      0.335367,
      -5.8203,
      2.19415,
      -0.996991,
      -2.04492,
      1.77704,
      -1.60307,
      -2.62937,
      3.10792,
      -1.02549,
      -1.90552,
      -0.386146,
      3.06338,
      1.71615,
      1.24637,
      -1.76456,
      -2.76301,
      -3.99386,
      -15.706,
      -3.10471,
      -1.76407,
      1.61691,
      9.4495,
      -0.471124,
      -5.0151,
      -3.10547,
      2.96246,
      5.63494,
      -0.562471,
      1.47848,
      0.335367,
      -5.8203,
      2.19415,
      -0.996991,
      -2.04492,
      1.77704,
      -1.60307,
      -2.62937,
      3.10792,
      -1.02549,
      -1.90552,
      -0.386146,
      3.06338,
      1.71615,
      1.24637,
      -1.76456,
      -2.76301,
      -3.99386,
      -15.706,
      -3.10471,
      -1.76407,
      1.61691,
      9.4495,
      0.0775689,
      -0.555823,
      0.864301,
      0.355159,
      0.457306,
      -1.40281,
      1.47848,
      0.335367,
      -5.8203,
      2.19415,
      -0.996991,
      -2.04492,
      1.77704,
      -1.60307,
      -2.62937,
      3.10792,
      -1.02549,
      -1.90552,
      -0.386146,
      3.06338,
      1.71615,
      1.24637,
      -1.76456,
      -2.76301,
      -3.99386,
      -15.706,
      -3.10471,
      -1.76407,
      1.61691,
      9.4495,
      0.0775689,
      -0.555823,
      0.864301,
      0.355159,
      0.457306,
      -1.40281,
      -1.11835,
      2.91969,
      0.280762,
      -3.79535,
      -1.49338,
      5.77154,
      1.77704,
      -1.60307,
      -2.62937,
      3.10792,
      -1.02549,
      -1.90552,
      -0.386146,
      3.06338,
      1.71615,
      1.24637,
      -1.76456,
      -2.76301,
      -3.99386,
      -15.706,
      -3.10471,
      -1.76407,
      1.61691,
      9.4495,
      0.0775689,
      -0.555823,
      0.864301,
      0.355159,
      0.457306,
      -1.40281,
      -1.11835,
      2.91969,
      0.280762,
      -3.79535,
      -1.49338,
      5.77154,
      1.37487,
      -1.56817,
      -1.22625,
      -2.30497,
      0.147208,
      4.68062
    ]
  }
]
