[
  { "bias": [
      0.240947,
      -0.235412,
      -0.216388,
      0.491681,
      -0.372051,
      0.348326
    ],
    "weight": [
      -4.92513,
      2.49657,
      -0.675299,
      -3.06172,
      3.46679,
      1.85366,
      -3.42511,
      1.84279,
      2.80555,
      4.98389,
      -0.517859,
      4.56895,
      -2.05689,
      0.692956,
      2.78728,
      3.65517,
      -1.90828,
      -1.15872,
      6.2217,
      0.843995,
      -10.5617,
      -5.27774,
      2.22865,
      -9.68035,
      -1.80157,
      1.74456,
      -2.94621,
      2.50948,
      -1.54049,
      1.41406,
      -1.87407,
      2.34457,
      -2.32369,
      6.1724,
      -6.13506,
      -0.569612,
      -3.42511,
      1.84279,
      2.80555,
      4.98389,
      -0.517859,
      4.56895,
      -2.05689,
      0.692956,
      2.78728,
      3.65517,
      -1.90828,
      -1.15872,
      6.2217,
      0.843995,
      -10.5617,
      -5.27774,
      2.22865,
      -9.68035,
      -1.80157,
      1.74456,
      -2.94621,
      2.50948,
      -1.54049,
      1.41406,
      -1.87407,
      2.34457,
      -2.32369,
      6.1724,
      -6.13506,
      -0.569612,
      -1.24039,
      1.57306,
      -1.05569,
      2.36285,
      -2.89142,
      0.720567,
      -2.05689,
      0.692956,
      2.78728,
      3.65517,
      -1.90828,
      -1.15872,
      6.2217,
      0.843995,
      -10.5617,
      -5.27774,
      2.22865,
      -9.68035,
      -1.80157,
      1.74456,
      -2.94621,
      2.50948,
      -1.54049,
      1.41406,
      -1.87407,
      2.34457,
      -2.32369,
      6.1724,
      -6.13506,
      -0.569612,
      -1.24039,
      1.57306,
      -1.05569,
      2.36285,
      -2.89142,
      0.720567,
      -4.1835,
      2.98113,
      1.79673,
      -10.2682,
      -8.79364,
      9.42931,
      6.2217,
      0.843995,
      -10.5617,
      -5.27774,
      2.22865,
      -9.68035,
      -1.80157,
      1.74456,
      -2.94621,
      2.50948,
      -1.54049,
      1.41406,
      -1.87407,
      2.34457,
      -2.32369,
      6.1724,
      -6.13506,
      -0.569612,
      -1.24039,
      1.57306,
      -1.05569,
      2.36285,
      -2.89142,
      0.720567,
      -4.1835,
      2.98113,
      1.79673,
      -10.2682,
      -8.79364,
      9.42931,
      0.678789,
      -0.811214,
      -0.800617,
      -0.176151,
      0.719928,
      -0.174509,
      -1.80157,
      1.74456,
      -2.94621,
      2.50948,
      -1.54049,
      1.41406,
      -1.87407,
      2.34457,
      -2.32369,
      6.1724,
      -6.13506,
      -0.569612,
      -1.24039,
      1.57306,
      -1.05569,
      2.36285,
      -2.89142,
      0.720567,
      -4.1835,
      2.98113,
      1.79673,
      -10.2682,
      -8.79364,
      9.42931,
      0.678789,
      -0.811214,
      -0.800617,
      -0.176151,
      0.719928,
      -0.174509,
      -1.35298,
      -0.0952393,
      2.55262,
      2.14867,
      1.21857,
      2.07584,
      -1.87407,
      2.34457,
      -2.32369,
      6.1724,
      -6.13506,
      -0.569612,
      -1.24039,
      1.57306,
      -1.05569,
      2.36285,
      -2.89142,
      0.720567,
      -4.1835,
      2.98113,
      1.79673,
      -10.2682,
      -8.79364,
      9.42931,
      0.678789,
      -0.811214,
      -0.800617,
      -0.176151,
      0.719928,
      -0.174509,
      -1.35298,
      -0.0952393,
      2.55262,
      2.14867,
      1.21857,
      2.07584,
      0.505455,
      -0.585032,
      0.272365,
      1.09529,
      -0.226908,
      -0.907092
    ]
  }
]
