[
  { "bias": [
      1.22553,
      -1.26249,
      -7.82404,
      0.361928,
      -0.20359,
      0.126131
    ],
    "weight": [
      -1.50595,
      0.21002,
      -0.147884,
      1.14608,
      2.08625,
      1.0562,
      -2.14703,
      1.57725,
      1.71314,
      2.73754,
      -0.854484,
      4.23625,
      -2.26859,
      4.48365,
      1.41011,
      4.00356,
      -5.06857,
      -3.30791,
      4.97632,
      -0.214955,
      0.998177,
      -4.76741,
      0.1011,
      -10.8186,
      -1.09106,
      2.12087,
      -7.91518,
      0.759488,
      -2.06717,
      -0.300416,
      1.08143,
      -0.786756,
      -6.35297,
      5.83178,
      -3.70592,
      -1.43492,
      -2.14703,
      1.57725,
      1.71314,
      2.73754,
      -0.854484,
      4.23625,
      -2.26859,
      4.48365,
      1.41011,
      4.00356,
      -5.06857,
      -3.30791,
      4.97632,
      -0.214955,
      0.998177,
      -4.76741,
      0.1011,
      -10.8186,
      -1.09106,
      2.12087,
      -7.91518,
      0.759488,
      -2.06717,
      -0.300416,
      1.08143,
      -0.786756,
      -6.35297,
      5.83178,
      -3.70592,
      -1.43492,
      -1.2456,
      1.9548,
      -5.51931,
      1.82114,
      -0.595082,
      -2.60981,
      -2.26859,
      4.48365,
      1.41011,
      4.00356,
      -5.06857,
      -3.30791,
      4.97632,
      -0.214955,
      0.998177,
      -4.76741,
      0.1011,
      -10.8186,
      -1.09106,
      2.12087,
      -7.91518,
      0.759488,
      -2.06717,
      -0.300416,
      1.08143,
      -0.786756,
      -6.35297,
      5.83178,
      -3.70592,
      -1.43492,
      -1.2456,
      1.9548,
      -5.51931,
      1.82114,
      -0.595082,
      -2.60981,
      -4.725,
      6.57438,
      -9.278,
      -7.06115,
      -8.20817,
      10.7159,
      4.97632,
      -0.214955,
      0.998177,
      -4.76741,
      0.1011,
      -10.8186,
      -1.09106,
      2.12087,
      -7.91518,
      0.759488,
      -2.06717,
      -0.300416,
      1.08143,
      -0.786756,
      -6.35297,
      5.83178,
      -3.70592,
      -1.43492,
      -1.2456,
      1.9548,
      -5.51931,
      1.82114,
      -0.595082,
      -2.60981,
      -4.725,
      6.57438,
      -9.278,
      -7.06115,
      -8.20817,
      10.7159,
      0.427198,
      -0.697864,
      -0.122443,
      0.13675,
      -0.534974,
      0.0876163,
      -1.09106,
      2.12087,
      -7.91518,
      0.759488,
      -2.06717,
      -0.300416,
      1.08143,
      -0.786756,
      -6.35297,
      5.83178,
      -3.70592,
      -1.43492,
      -1.2456,
      1.9548,
      -5.51931,
      1.82114,
      -0.595082,
      -2.60981,
      -4.725,
      6.57438,
      -9.278,
      -7.06115,
      -8.20817,
      10.7159,
      0.427198,
      -0.697864,
      -0.122443,
      0.13675,
      -0.534974,
      0.0876163,
      -0.543179,
      -0.149003,
      0.90273,
      2.17813,
      0.342535,
      1.20956,
      1.08143,
      -0.786756,
      -6.35297,
      5.83178,
      -3.70592,
      -1.43492,
      -1.2456,
      1.9548,
      -5.51931,
      1.82114,
      -0.595082,
      -2.60981,
      -4.725,
      6.57438,
      -9.278,
      -7.06115,
      -8.20817,
      10.7159,
      0.427198,
      -0.697864,
      -0.122443,
      0.13675,
      -0.534974,
      0.0876163,
      -0.543179,
      -0.149003,
      0.90273,
      2.17813,
      0.342535,
      1.20956,
      0.522859,
      -0.276292,
      1.66239,
      1.47977,
      -1.56083,
      -1.48241
    ]
  }
]
