[
  { "bias": [
      0.914458,
      -1.04081,
      -5.42373,
      0.0980071,
      0.0803854,
      -0.3388
    ],
    "weight": [
      0.972497,
      -2.19869,
      -0.234438,
      3.32901,
      0.608749,
      0.217344,
      -1.45084,
      1.29959,
      1.5011,
      1.19239,
      -0.407997,
      3.03846,
      -1.91599,
      6.26765,
      1.67294,
      5.78404,
      -4.82823,
      5.12792,
      3.83435,
      1.18856,
      0.635403,
      0.0945268,
      -2.49902,
      -7.78587,
      0.342515,
      1.54638,
      -6.75583,
      -1.98748,
      -2.53953,
      0.389335,
      2.00151,
      -1.90649,
      -5.24703,
      2.40061,
      -1.3577,
      -0.614883,
      -1.45084,
      1.29959,
      1.5011,
      1.19239,
      -0.407997,
      3.03846,
      -1.91599,
      6.26765,
      1.67294,
      5.78404,
      -4.82823,
      5.12792,
      3.83435,
      1.18856,
      0.635403,
      0.0945268,
      -2.49902,
      -7.78587,
      0.342515,
      1.54638,
      -6.75583,
      -1.98748,
      -2.53953,
      0.389335,
      2.00151,
      -1.90649,
      -5.24703,
      2.40061,
      -1.3577,
      -0.614883,
      -0.745652,
      1.55832,
      -4.99994,
      1.67845,
      0.432928,
      -5.95436,
      -1.91599,
      6.26765,
      1.67294,
      5.78404,
      -4.82823,
      5.12792,
      3.83435,
      1.18856,
      0.635403,
      0.0945268,
      -2.49902,
      -7.78587,
      0.342515,
      1.54638,
      -6.75583,
      -1.98748,
      -2.53953,
      0.389335,
      2.00151,
      -1.90649,
      -5.24703,
      2.40061,
      -1.3577,
      -0.614883,
      -0.745652,
      1.55832,
      -4.99994,
      1.67845,
      0.432928,
      -5.95436,
      -5.36233,
      7.27471,
      -8.4251,
      1.07333,
      -5.4319,
      10.1641,
      3.83435,
      1.18856,
      0.635403,
      0.0945268,
      -2.49902,
      -7.78587,
      0.342515,
      1.54638,
      -6.75583,
      -1.98748,
      -2.53953,
      0.389335,
      2.00151,
      -1.90649,
      -5.24703,
      2.40061,
      -1.3577,
      -0.614883,
      -0.745652,
      1.55832,
      -4.99994,
      1.67845,
      0.432928,
      -5.95436,
      -5.36233,
      7.27471,
      -8.4251,
      1.07333,
      -5.4319,
      10.1641,
      -0.217089,
      -0.835611,
      0.105996,
      2.72027,
      0.21729,
      -1.64263,
      0.342515,
      1.54638,
      -6.75583,
      -1.98748,
      -2.53953,
      0.389335,
      2.00151,
      -1.90649,
      -5.24703,
      2.40061,
      -1.3577,
      -0.614883,
      -0.745652,
      1.55832,
      -4.99994,
      1.67845,
      0.432928,
      -5.95436,
      -5.36233,
      7.27471,
      -8.4251,
      1.07333,
      -5.4319,
      10.1641,
      -0.217089,
      -0.835611,
      0.105996,
      2.72027,
      0.21729,
      -1.64263,
      -0.378775,
      1.98338,
      0.290336,
      -2.0447,
      -1.26499,
      6.0037,
      2.00151,
      -1.90649,
      -5.24703,
      2.40061,
      -1.3577,
      -0.614883,
      -0.745652,
      1.55832,
      -4.99994,
      1.67845,
      0.432928,
      -5.95436,
      -5.36233,
      7.27471,
      -8.4251,
      1.07333,
      -5.4319,
      10.1641,
      -0.217089,
      -0.835611,
      0.105996,
      2.72027,
      0.21729,
      -1.64263,
      -0.378775,
      1.98338,
      0.290336,
      -2.0447,
      -1.26499,
      6.0037,
      0.935023,
      -0.825971,
      0.814086,
      3.08476,
      -2.81097,
      1.90414
    ]
  }
]
