[
  { "bias": [
      0.241232,
      -0.251021,
      -5.17266,
      0.436224,
      -0.349087,
      0.282141
    ],
    "weight": [
      -4.75568,
      2.71716,
      -1.72765,
      -2.80594,
      3.3029,
      1.87793,
      -3.33878,
      2.20911,
      2.33197,
      4.52536,
      -0.709302,
      4.15219,
      -1.43436,
      1.79427,
      2.17476,
      3.38986,
      -1.70035,
      -0.96442,
      5.03125,
      -0.32551,
      1.59565,
      -4.65592,
      2.13214,
      -8.88204,
      -1.50265,
      1.03972,
      -7.29956,
      2.06887,
      -1.42716,
      1.47544,
      -1.72641,
      2.05957,
      -6.18245,
      5.68348,
      -5.70043,
      -0.451629,
      -3.33878,
      2.20911,
      2.33197,
      4.52536,
      -0.709302,
      4.15219,
      -1.43436,
      1.79427,
      2.17476,
      3.38986,
      -1.70035,
      -0.96442,
      5.03125,
      -0.32551,
      1.59565,
      -4.65592,
      2.13214,
      -8.88204,
      -1.50265,
      1.03972,
      -7.29956,
      2.06887,
      -1.42716,
      1.47544,
      -1.72641,
      2.05957,
      -6.18245,
      5.68348,
      -5.70043,
      -0.451629,
      -0.882479,
      1.36908,
      -5.63059,
      2.24624,
      -2.65461,
      0.741556,
      -1.43436,
      1.79427,
      2.17476,
      3.38986,
      -1.70035,
      -0.96442,
      5.03125,
      -0.32551,
      1.59565,
      -4.65592,
      2.13214,
      -8.88204,
      -1.50265,
      1.03972,
      -7.29956,
      2.06887,
      -1.42716,
      1.47544,
      -1.72641,
      2.05957,
      -6.18245,
      5.68348,
      -5.70043,
      -0.451629,
      -0.882479,
      1.36908,
      -5.63059,
      2.24624,
      -2.65461,
      0.741556,
      -3.12067,
      4.4954,
      -6.71598,
      -9.65656,
      -7.97545,
      9.14597,
      5.03125,
      -0.32551,
      1.59565,
      -4.65592,
      2.13214,
      -8.88204,
      -1.50265,
      1.03972,
      -7.29956,
      2.06887,
      -1.42716,
      1.47544,
      -1.72641,
      2.05957,
      -6.18245,
      5.68348,
      -5.70043,
      -0.451629,
      -0.882479,
      1.36908,
      -5.63059,
      2.24624,
      -2.65461,
      0.741556,
      -3.12067,
      4.4954,
      -6.71598,
      -9.65656,
      -7.97545,
      9.14597,
      0.679924,
      -0.876093,
      -0.934762,
      -0.190108,
      0.614196,
      -0.173563,
      -1.50265,
      1.03972,
      -7.29956,
      2.06887,
      -1.42716,
      1.47544,
      -1.72641,
      2.05957,
      -6.18245,
      5.68348,
      -5.70043,
      -0.451629,
      -0.882479,
      1.36908,
      -5.63059,
      2.24624,
      -2.65461,
      0.741556,
      -3.12067,
      4.4954,
      -6.71598,
      -9.65656,
      -7.97545,
      9.14597,
      0.679924,
      -0.876093,
      -0.934762,
      -0.190108,
      0.614196,
      -0.173563,
      -1.17136,
      0.0802333,
      1.70383,
      1.9215,
      1.05493,
      1.83646,
      -1.72641,
      2.05957,
      -6.18245,
      5.68348,
      -5.70043,
      -0.451629,
      -0.882479,
      1.36908,
      -5.63059,
      2.24624,
      -2.65461,
      0.741556,
      -3.12067,
      4.4954,
      -6.71598,
      -9.65656,
      -7.97545,
      9.14597,
      0.679924,
      -0.876093,
      -0.934762,
      -0.190108,
      0.614196,
      -0.173563,
      -1.17136,
      0.0802333,
      1.70383,
      1.9215,
      1.05493,
      1.83646,
      0.683549,
      -0.625898,
      1.69708,
      0.886405,
      -0.297017,
      -0.934981
    ]
  }
]
