[
  { "bias": [
      0.175129,
      -0.116959,
      -0.125645,
      -0.0944777,
      -0.0380941,
      0.286039
    ],
    "weight": [
      -2.04431,
      -0.0619667,
      0.827026,
      -2.18357,
      1.49613,
      2.6361,
      -1.31691,
      1.33694,
      -1.03856,
      0.823324,
      -1.0058,
      3.29313,
      -1.04896,
      0.881353,
      2.45088,
      0.0716806,
      -0.358947,
      -0.441294,
      4.17808,
      1.43856,
      -4.53378,
      -0.251422,
      -1.07716,
      -0.3893,
      1.35088,
      1.33882,
      -3.39145,
      -1.0965,
      -1.08862,
      1.19095,
      2.95432,
      0.596273,
      -3.17267,
      0.553573,
      -2.80651,
      -1.00924,
      -1.31691,
      1.33694,
      -1.03856,
      0.823324,
      -1.0058,
      3.29313,
      -1.04896,
      0.881353,
      2.45088,
      0.0716806,
      -0.358947,
      -0.441294,
      4.17808,
      1.43856,
      -4.53378,
      -0.251422,
      -1.07716,
      -0.3893,
      1.35088,
      1.33882,
      -3.39145,
      -1.0965,
      -1.08862,
      1.19095,
      2.95432,
      0.596273,
      -3.17267,
      0.553573,
      -2.80651,
      -1.00924,
      1.90068,
      0.770666,
      -2.58174,
      -0.469939,
      -0.648499,
      -1.70619,
      -1.04896,
      0.881353,
      2.45088,
      0.0716806,
      -0.358947,
      -0.441294,
      4.17808,
      1.43856,
      -4.53378,
      -0.251422,
      -1.07716,
      -0.3893,
      1.35088,
      1.33882,
      -3.39145,
      -1.0965,
      -1.08862,
      1.19095,
      2.95432,
      0.596273,
      -3.17267,
      0.553573,
      -2.80651,
      -1.00924,
      1.90068,
      0.770666,
      -2.58174,
      -0.469939,
      -0.648499,
      -1.70619,
      -3.00263,
      4.68395,
      -0.74754,
      -2.27289,
      -1.1042,
      0.79287,
      4.17808,
      1.43856,
      -4.53378,
      -0.251422,
      -1.07716,
      -0.3893,
      1.35088,
      1.33882,
      -3.39145,
      -1.0965,
      -1.08862,
      1.19095,
      2.95432,
      0.596273,
      -3.17267,
      0.553573,
      -2.80651,
      -1.00924,
      1.90068,
      0.770666,
      -2.58174,
      -0.469939,
      -0.648499,
      -1.70619,
      -3.00263,
      4.68395,
      -0.74754,
      -2.27289,
      -1.1042,
      0.79287,
      0.0619768,
      -1.09018,
      0.0889387,
      1.05241,
      -0.232417,
      -0.250157,
      1.35088,
      1.33882,
      -3.39145,
      -1.0965,
      -1.08862,
      1.19095,
      2.95432,
      0.596273,
      -3.17267,
      0.553573,
      -2.80651,
      -1.00924,
      1.90068,
      0.770666,
      -2.58174,
      -0.469939,
      -0.648499,
      -1.70619,
      -3.00263,
      4.68395,
      -0.74754,
      -2.27289,
      -1.1042,
      0.79287,
      0.0619768,
      -1.09018,
      0.0889387,
      1.05241,
      -0.232417,
      -0.250157,
      -0.618402,
      -0.337618,
      0.241153,
      0.857093,
      0.0201831,
      1.01515,
      2.95432,
      0.596273,
      -3.17267,
      0.553573,
      -2.80651,
      -1.00924,
      1.90068,
      0.770666,
      -2.58174,
      -0.469939,
      -0.648499,
      -1.70619,
      -3.00263,
      4.68395,
      -0.74754,
      -2.27289,
      -1.1042,
      0.79287,
      0.0619768,
      -1.09018,
      0.0889387,
      1.05241,
      -0.232417,
      -0.250157,
      -0.618402,
      -0.337618,
      0.241153,
      0.857093,
      0.0201831,
      1.01515,
      0.226619,
      -0.741145,
      -1.43879,
      0.773375,
      0.279146,
      -1.16224
    ]
  }
]
