[
  { "bias": [
      0.850917,
      -0.868654,
      -5.17403,
      0.268143,
      -0.145315,
      0.0229312
    ],
    "weight": [
      -1.30296,
      0.187626,
      -0.147884,
      0.740721,
      1.3156,
      0.557994,
      -1.52148,
      0.949325,
      1.71314,
      1.98095,
      -0.863045,
      3.12679,
      -1.80553,
      3.62515,
      1.41011,
      3.06873,
      -3.69908,
      -1.96156,
      3.77371,
      0.645191,
      0.998177,
      -2.51123,
      0.387969,
      -7.78368,
      -0.563399,
      1.55854,
      -7.91518,
      0.30412,
      -1.38566,
      -0.299574,
      0.784254,
      -0.436472,
      -6.35297,
      4.16593,
      -3.0279,
      -1.25598,
      -1.52148,
      0.949325,
      1.71314,
      1.98095,
      -0.863045,
      3.12679,
      -1.80553,
      3.62515,
      1.41011,
      3.06873,
      -3.69908,
      -1.96156,
      3.77371,
      0.645191,
      0.998177,
      -2.51123,
      0.387969,
      -7.78368,
      -0.563399,
      1.55854,
      -7.91518,
      0.30412,
      -1.38566,
      -0.299574,
      0.784254,
      -0.436472,
      -6.35297,
      4.16593,
      -3.0279,
      -1.25598,
      -0.666648,
      1.39856,
      -5.51931,
      1.5945,
      -0.677126,
      -2.09395,
      -1.80553,
      3.62515,
      1.41011,
      3.06873,
      -3.69908,
      -1.96156,
      3.77371,
      0.645191,
      0.998177,
      -2.51123,
      0.387969,
      -7.78368,
      -0.563399,
      1.55854,
      -7.91518,
      0.30412,
      -1.38566,
      -0.299574,
      0.784254,
      -0.436472,
      -6.35297,
      4.16593,
      -3.0279,
      -1.25598,
      -0.666648,
      1.39856,
      -5.51931,
      1.5945,
      -0.677126,
      -2.09395,
      -3.74944,
      5.5539,
      -9.278,
      -5.6448,
      -6.48674,
      7.87566,
      3.77371,
      0.645191,
      0.998177,
      -2.51123,
      0.387969,
      -7.78368,
      -0.563399,
      1.55854,
      -7.91518,
      0.30412,
      -1.38566,
      -0.299574,
      0.784254,
      -0.436472,
      -6.35297,
      4.16593,
      -3.0279,
      -1.25598,
      -0.666648,
      1.39856,
      -5.51931,
      1.5945,
      -0.677126,
      -2.09395,
      -3.74944,
      5.5539,
      -9.278,
      -5.6448,
      -6.48674,
      7.87566,
      0.368713,
      -0.648899,
      -0.122443,
      0.13292,
      -0.154719,
      0.0106246,
      -0.563399,
      1.55854,
      -7.91518,
      0.30412,
      -1.38566,
      -0.299574,
      0.784254,
      -0.436472,
      -6.35297,
      4.16593,
      -3.0279,
      -1.25598,
      -0.666648,
      1.39856,
      -5.51931,
      1.5945,
      -0.677126,
      -2.09395,
      -3.74944,
      5.5539,
      -9.278,
      -5.6448,
      -6.48674,
      7.87566,
      0.368713,
      -0.648899,
      -0.122443,
      0.13292,
      -0.154719,
      0.0106246,
      -0.723666,
      0.0785783,
      0.90273,
      1.51252,
      0.138172,
      1.19493,
      0.784254,
      -0.436472,
      -6.35297,
      4.16593,
      -3.0279,
      -1.25598,
      -0.666648,
      1.39856,
      -5.51931,
      1.5945,
      -0.677126,
      -2.09395,
      -3.74944,
      5.5539,
      -9.278,
      -5.6448,
      -6.48674,
      7.87566,
      0.368713,
      -0.648899,
      -0.122443,
      0.13292,
      -0.154719,
      0.0106246,
      -0.723666,
      0.0785783,
      0.90273,
      1.51252,
      0.138172,
      1.19493,
      0.47896,
      -0.340439,
      1.66239,
      1.16262,
      -0.942054,
      -1.01379
    ]
  }
]
