[
  { "bias": [
      0.865314,
      -0.811316,
      -0.244472,
      0.096676,
      0.110488,
      -0.319078
    ],
    "weight": [
      0.614419,
      -2.33134,
      0.738146,
      3.09297,
      0.564059,
      -0.123134,
      -1.8304,
      1.18449,
      1.3886,
      1.49244,
      -0.138385,
      3.15632,
      -2.33776,
      3.68435,
      1.21594,
      4.52117,
      -5.41545,
      4.16515,
      4.76731,
      1.65059,
      -1.60655,
      -1.02451,
      -3.09139,
      -8.81904,
      0.637625,
      2.7088,
      -2.89038,
      -2.47403,
      -2.73957,
      0.278707,
      2.00899,
      -1.90624,
      -0.580737,
      2.61825,
      -1.52718,
      -0.600151,
      -1.8304,
      1.18449,
      1.3886,
      1.49244,
      -0.138385,
      3.15632,
      -2.33776,
      3.68435,
      1.21594,
      4.52117,
      -5.41545,
      4.16515,
      4.76731,
      1.65059,
      -1.60655,
      -1.02451,
      -3.09139,
      -8.81904,
      0.637625,
      2.7088,
      -2.89038,
      -2.47403,
      -2.73957,
      0.278707,
      2.00899,
      -1.90624,
      -0.580737,
      2.61825,
      -1.52718,
      -0.600151,
      -0.953426,
      1.50239,
      -0.222755,
      0.98716,
      0.0527803,
      -6.52876,
      -2.33776,
      3.68435,
      1.21594,
      4.52117,
      -5.41545,
      4.16515,
      4.76731,
      1.65059,
      -1.60655,
      -1.02451,
      -3.09139,
      -8.81904,
      0.637625,
      2.7088,
      -2.89038,
      -2.47403,
      -2.73957,
      0.278707,
      2.00899,
      -1.90624,
      -0.580737,
      2.61825,
      -1.52718,
      -0.600151,
      -0.953426,
      1.50239,
      -0.222755,
      0.98716,
      0.0527803,
      -6.52876,
      -3.61487,
      2.86028,
      1.16559,
      -0.0118747,
      -5.51944,
      10.4419,
      4.76731,
      1.65059,
      -1.60655,
      -1.02451,
      -3.09139,
      -8.81904,
      0.637625,
      2.7088,
      -2.89038,
      -2.47403,
      -2.73957,
      0.278707,
      2.00899,
      -1.90624,
      -0.580737,
      2.61825,
      -1.52718,
      -0.600151,
      -0.953426,
      1.50239,
      -0.222755,
      0.98716,
      0.0527803,
      -6.52876,
      -3.61487,
      2.86028,
      1.16559,
      -0.0118747,
      -5.51944,
      10.4419,
      -1.67718,
      -1.91249,
      3.63341,
      2.77213,
      -0.075139,
      -1.90144,
      0.637625,
      2.7088,
      -2.89038,
      -2.47403,
      -2.73957,
      0.278707,
      2.00899,
      -1.90624,
      -0.580737,
      2.61825,
      -1.52718,
      -0.600151,
      -0.953426,
      1.50239,
      -0.222755,
      0.98716,
      0.0527803,
      -6.52876,
      -3.61487,
      2.86028,
      1.16559,
      -0.0118747,
      -5.51944,
      10.4419,
      -1.67718,
      -1.91249,
      3.63341,
      2.77213,
      -0.075139,
      -1.90144,
      0.28435,
      4.01463,
      -3.61675,
      -2.41132,
      -1.30584,
      5.93081,
      2.00899,
      -1.90624,
      -0.580737,
      2.61825,
      -1.52718,
      -0.600151,
      -0.953426,
      1.50239,
      -0.222755,
      0.98716,
      0.0527803,
      -6.52876,
      -3.61487,
      2.86028,
      1.16559,
      -0.0118747,
      -5.51944,
      10.4419,
      -1.67718,
      -1.91249,
      3.63341,
      2.77213,
      -0.075139,
      -1.90144,
      0.28435,
      4.01463,
      -3.61675,
      -2.41132,
      -1.30584,
      5.93081,
      2.19253,
      0.498534,
      -2.81192,
      3.54852,
      -2.54958,
      2.84537
    ]
  }
]
