[
  { "bias": [
      0.525244,
      -0.62036,
      0.187708,
      -0.287639,
      -0.0414907,
      0.452464
    ],
    "weight": [
      -0.421551,
      -1.64184,
      1.48326,
      0.879184,
      -0.109431,
      1.09764,
      -1.76925,
      1.70236,
      0.547764,
      1.35048,
      -1.08339,
      3.12561,
      -1.09654,
      4.31563,
      0.603937,
      0.272505,
      -2.45142,
      1.03492,
      4.80115,
      0.460263,
      -1.0895,
      1.68351,
      -1.78885,
      -0.895048,
      2.19079,
      2.29569,
      -4.73376,
      -0.528452,
      -2.40112,
      1.5398,
      3.80114,
      -0.0610161,
      -3.25668,
      2.32062,
      -3.29884,
      -4.43471,
      -1.76925,
      1.70236,
      0.547764,
      1.35048,
      -1.08339,
      3.12561,
      -1.09654,
      4.31563,
      0.603937,
      0.272505,
      -2.45142,
      1.03492,
      4.80115,
      0.460263,
      -1.0895,
      1.68351,
      -1.78885,
      -0.895048,
      2.19079,
      2.29569,
      -4.73376,
      -0.528452,
      -2.40112,
      1.5398,
      3.80114,
      -0.0610161,
      -3.25668,
      2.32062,
      -3.29884,
      -4.43471,
      1.18571,
      1.32507,
      -1.01102,
      0.422523,
      -0.762457,
      -5.04716,
      -1.09654,
      4.31563,
      0.603937,
      0.272505,
      -2.45142,
      1.03492,
      4.80115,
      0.460263,
      -1.0895,
      1.68351,
      -1.78885,
      -0.895048,
      2.19079,
      2.29569,
      -4.73376,
      -0.528452,
      -2.40112,
      1.5398,
      3.80114,
      -0.0610161,
      -3.25668,
      2.32062,
      -3.29884,
      -4.43471,
      1.18571,
      1.32507,
      -1.01102,
      0.422523,
      -0.762457,
      -5.04716,
      -5.17019,
      8.59431,
      -2.38462,
      0.393325,
      -1.08481,
      -3.24461,
      4.80115,
      0.460263,
      -1.0895,
      1.68351,
      -1.78885,
      -0.895048,
      2.19079,
      2.29569,
      -4.73376,
      -0.528452,
      -2.40112,
      1.5398,
      3.80114,
      -0.0610161,
      -3.25668,
      2.32062,
      -3.29884,
      -4.43471,
      1.18571,
      1.32507,
      -1.01102,
      0.422523,
      -0.762457,
      -5.04716,
      -5.17019,
      8.59431,
      -2.38462,
      0.393325,
      -1.08481,
      -3.24461,
      -0.86191,
      -1.66958,
      2.69412,
      -0.507395,
      1.44904,
      -0.481352,
      2.19079,
      2.29569,
      -4.73376,
      -0.528452,
      -2.40112,
      1.5398,
      3.80114,
      -0.0610161,
      -3.25668,
      2.32062,
      -3.29884,
      -4.43471,
      1.18571,
      1.32507,
      -1.01102,
      0.422523,
      -0.762457,
      -5.04716,
      -5.17019,
      8.59431,
      -2.38462,
      0.393325,
      -1.08481,
      -3.24461,
      -0.86191,
      -1.66958,
      2.69412,
      -0.507395,
      1.44904,
      -0.481352,
      -0.862829,
      0.937147,
      -1.45834,
      1.15168,
      -1.13928,
      3.12547,
      3.80114,
      -0.0610161,
      -3.25668,
      2.32062,
      -3.29884,
      -4.43471,
      1.18571,
      1.32507,
      -1.01102,
      0.422523,
      -0.762457,
      -5.04716,
      -5.17019,
      8.59431,
      -2.38462,
      0.393325,
      -1.08481,
      -3.24461,
      -0.86191,
      -1.66958,
      2.69412,
      -0.507395,
      1.44904,
      -0.481352,
      -0.862829,
      0.937147,
      -1.45834,
      1.15168,
      -1.13928,
      3.12547,
      -0.222599,
      0.56168,
      -2.06767,
      2.33939,
      -1.4089,
      0.157422
    ]
  }
]
