[
  { "bias": [
      0.251821,
      0.181701,
      -5.07379,
      -0.0504876,
      0.117193,
      -0.562873
    ],
    "weight": [
      -0.196727,
      -2.1793,
      -1.70145,
      -2.07705,
      1.66747,
      2.31371,
      -1.56039,
      0.988222,
      0.525958,
      -0.324157,
      -0.414682,
      3.62064,
      -2.45239,
      1.43353,
      0.286992,
      -0.974435,
      0.874856,
      1.3627,
      4.32209,
      -1.13066,
      2.23123,
      -0.548586,
      -0.392558,
      -0.333042,
      2.97403,
      -0.638902,
      -5.77744,
      -0.494921,
      -1.09028,
      0.122719,
      2.47212,
      0.381633,
      -4.46495,
      -0.909722,
      -1.88634,
      -1.52731,
      -1.56039,
      0.988222,
      0.525958,
      -0.324157,
      -0.414682,
      3.62064,
      -2.45239,
      1.43353,
      0.286992,
      -0.974435,
      0.874856,
      1.3627,
      4.32209,
      -1.13066,
      2.23123,
      -0.548586,
      -0.392558,
      -0.333042,
      2.97403,
      -0.638902,
      -5.77744,
      -0.494921,
      -1.09028,
      0.122719,
      2.47212,
      0.381633,
      -4.46495,
      -0.909722,
      -1.88634,
      -1.52731,
      2.4423,
      0.171866,
      -4.11559,
      0.63418,
      -1.20534,
      -3.58529,
      -2.45239,
      1.43353,
      0.286992,
      -0.974435,
      0.874856,
      1.3627,
      4.32209,
      -1.13066,
      2.23123,
      -0.548586,
      -0.392558,
      -0.333042,
      2.97403,
      -0.638902,
      -5.77744,
      -0.494921,
      -1.09028,
      0.122719,
      2.47212,
      0.381633,
      -4.46495,
      -0.909722,
      -1.88634,
      -1.52731,
      2.4423,
      0.171866,
      -4.11559,
      0.63418,
      -1.20534,
      -3.58529,
      -3.97959,
      5.54925,
      -4.76806,
      -2.68047,
      1.04742,
      -1.03263,
      4.32209,
      -1.13066,
      2.23123,
      -0.548586,
      -0.392558,
      -0.333042,
      2.97403,
      -0.638902,
      -5.77744,
      -0.494921,
      -1.09028,
      0.122719,
      2.47212,
      0.381633,
      -4.46495,
      -0.909722,
      -1.88634,
      -1.52731,
      2.4423,
      0.171866,
      -4.11559,
      0.63418,
      -1.20534,
      -3.58529,
      -3.97959,
      5.54925,
      -4.76806,
      -2.68047,
      1.04742,
      -1.03263,
      0.294706,
      -1.83485,
      -1.28104,
      0.285748,
      0.64936,
      0.0320335,
      2.97403,
      -0.638902,
      -5.77744,
      -0.494921,
      -1.09028,
      0.122719,
      2.47212,
      0.381633,
      -4.46495,
      -0.909722,
      -1.88634,
      -1.52731,
      2.4423,
      0.171866,
      -4.11559,
      0.63418,
      -1.20534,
      -3.58529,
      -3.97959,
      5.54925,
      -4.76806,
      -2.68047,
      1.04742,
      -1.03263,
      0.294706,
      -1.83485,
      -1.28104,
      0.285748,
      0.64936,
      0.0320335,
      -0.545399,
      -0.562108,
      0.863804,
      0.856942,
      -0.325133,
      3.64314,
      2.47212,
      0.381633,
      -4.46495,
      -0.909722,
      -1.88634,
      -1.52731,
      2.4423,
      0.171866,
      -4.11559,
      0.63418,
      -1.20534,
      -3.58529,
      -3.97959,
      5.54925,
      -4.76806,
      -2.68047,
      1.04742,
      -1.03263,
      0.294706,
      -1.83485,
      -1.28104,
      0.285748,
      0.64936,
      0.0320335,
      -0.545399,
      -0.562108,
      0.863804,
      0.856942,
      -0.325133,
      3.64314,
      -2.39019,
      -0.0781028,
      0.637806,
      -0.131507,
      1.03749,
      1.64431
    ]
  }
]
