[
  { "bias": [
      0.226603,
      -0.218165,
      -0.215453,
      0.433774,
      -0.323999,
      0.289954
    ],
    "weight": [
      -4.46704,
      2.15281,
      -0.568028,
      -2.7673,
      3.12311,
      1.69448,
      -3.08217,
      1.54631,
      2.39746,
      4.53522,
      -0.537112,
      4.11744,
      -1.85178,
      0.55627,
      2.55977,
      3.27686,
      -1.77711,
      -0.898196,
      5.84485,
      1.06143,
      -9.30021,
      -4.70847,
      2.12031,
      -8.65971,
      -1.69443,
      1.63034,
      -2.52217,
      1.99121,
      -1.40009,
      1.31316,
      -1.67275,
      2.15472,
      -2.0972,
      5.48592,
      -5.60922,
      -0.569975,
      -3.08217,
      1.54631,
      2.39746,
      4.53522,
      -0.537112,
      4.11744,
      -1.85178,
      0.55627,
      2.55977,
      3.27686,
      -1.77711,
      -0.898196,
      5.84485,
      1.06143,
      -9.30021,
      -4.70847,
      2.12031,
      -8.65971,
      -1.69443,
      1.63034,
      -2.52217,
      1.99121,
      -1.40009,
      1.31316,
      -1.67275,
      2.15472,
      -2.0972,
      5.48592,
      -5.60922,
      -0.569975,
      -1.03807,
      1.37502,
      -0.927715,
      2.00011,
      -2.57853,
      0.638619,
      -1.85178,
      0.55627,
      2.55977,
      3.27686,
      -1.77711,
      -0.898196,
      5.84485,
      1.06143,
      -9.30021,
      -4.70847,
      2.12031,
      -8.65971,
      -1.69443,
      1.63034,
      -2.52217,
      1.99121,
      -1.40009,
      1.31316,
      -1.67275,
      2.15472,
      -2.0972,
      5.48592,
      -5.60922,
      -0.569975,
      -1.03807,
      1.37502,
      -0.927715,
      2.00011,
      -2.57853,
      0.638619,
      -3.90935,
      2.78016,
      1.7161,
      -9.46527,
      -7.89622,
      8.49429,
      5.84485,
      1.06143,
      -9.30021,
      -4.70847,
      2.12031,
      -8.65971,
      -1.69443,
      1.63034,
      -2.52217,
      1.99121,
      -1.40009,
      1.31316,
      -1.67275,
      2.15472,
      -2.0972,
      5.48592,
      -5.60922,
      -0.569975,
      -1.03807,
      1.37502,
      -0.927715,
      2.00011,
      -2.57853,
      0.638619,
      -3.90935,
      2.78016,
      1.7161,
      -9.46527,
      -7.89622,
      8.49429,
      0.572494,
      -0.703671,
      -0.765509,
      -0.11827,
      0.648765,
      -0.195941,
      -1.69443,
      1.63034,
      -2.52217,
      1.99121,
      -1.40009,
      1.31316,
      -1.67275,
      2.15472,
      -2.0972,
      5.48592,
      -5.60922,
      -0.569975,
      -1.03807,
      1.37502,
      -0.927715,
      2.00011,
      -2.57853,
      0.638619,
      -3.90935,
      2.78016,
      1.7161,
      -9.46527,
      -7.89622,
      8.49429,
      0.572494,
      -0.703671,
      -0.765509,
      -0.11827,
      0.648765,
      -0.195941,
      -1.3445,
      -0.0841768,
      2.34357,
      1.91186,
      1.07778,
      1.81598,
      -1.67275,
      2.15472,
      -2.0972,
      5.48592,
      -5.60922,
      -0.569975,
      -1.03807,
      1.37502,
      -0.927715,
      2.00011,
      -2.57853,
      0.638619,
      -3.90935,
      2.78016,
      1.7161,
      -9.46527,
      -7.89622,
      8.49429,
      0.572494,
      -0.703671,
      -0.765509,
      -0.11827,
      0.648765,
      -0.195941,
      -1.3445,
      -0.0841768,
      2.34357,
      1.91186,
      1.07778,
      1.81598,
      0.399079,
      -0.503023,
      0.344577,
      0.957993,
      -0.235772,
      -0.788237
    ]
  }
]
