[
  { "bias": [
      -0.174501,
      -0.0882619,
      -0.787998,
      0.858393,
      -0.382473,
      1.00316
    ],
    "weight": [
      -3.57231,
      4.709,
      -7.23599,
      -1.94603,
      -1.8336,
      7.49787,
      -4.47218,
      0.964724,
      32.7877,
      2.13029,
      -0.894145,
      -1.26467,
      0.243511,
      -4.47218,
      0.964724,
      32.7877,
      2.13029,
      -0.894145,
      -1.26467,
      0.243511,
      0.545891,
      -3.33825,
      11.8954,
      -5.13896,
      -4.26443,
      -0.694428,
      0.243511,
      0.545891,
      -3.33825,
      11.8954,
      -5.13896,
      -4.26443,
      -0.694428,
      0.145816,
      2.8951,
      5.18715,
      -2.23576,
      5.77014,
      -3.84377,
      -0.694428,
      0.145816,
      2.8951,
      5.18715,
      -2.23576,
      5.77014,
      -3.84377,
      3.83471,
      1.89324,
      11.2724,
      -2.47491,
      1.37924,
      1.66339,
      -3.84377,
      3.83471,
      1.89324,
      11.2724,
      -2.47491,
      1.37924,
      1.66339,
      -2.44503,
      1.53027,
      -7.62206,
      3.67556,
      -5.39548,
      3.68901,
      1.66339,
      -2.44503,
      1.53027,
      -7.62206,
      3.67556,
      -5.39548,
      3.68901,
      -6.30982,
      -0.0223881,
      12.7693,
      0.715679,
      7.57298,
      -6.39553
    ]
  }
]
