[
  { "bias": [
      -0.110921,
      -0.0659303,
      -5.43641,
      0.672162,
      -0.27846,
      0.501822
    ],
    "weight": [
      -2.90781,
      3.43849,
      -13.7778,
      -1.06422,
      -1.15972,
      5.35696,
      -2.17348,
      2.80984,
      5.5075,
      1.5273,
      0.0307191,
      -0.945711,
      0.745932,
      -2.17348,
      2.80984,
      5.5075,
      1.5273,
      0.0307191,
      -0.945711,
      0.745932,
      0.557865,
      -8.89089,
      8.04681,
      -3.63195,
      -3.26825,
      -0.660106,
      0.745932,
      0.557865,
      -8.89089,
      8.04681,
      -3.63195,
      -3.26825,
      -0.660106,
      0.308348,
      2.55535,
      3.5111,
      -2.31962,
      4.17694,
      -3.11969,
      -0.660106,
      0.308348,
      2.55535,
      3.5111,
      -2.31962,
      4.17694,
      -3.11969,
      2.81815,
      5.1301,
      7.9,
      -2.03188,
      1.35448,
      1.55403,
      -3.11969,
      2.81815,
      5.1301,
      7.9,
      -2.03188,
      1.35448,
      1.55403,
      -1.47635,
      -1.47619,
      -4.7711,
      2.74356,
      -3.41899,
      2.30525,
      1.55403,
      -1.47635,
      -1.47619,
      -4.7711,
      2.74356,
      -3.41899,
      2.30525,
      -6.25775,
      1.54216,
      9.67562,
      -0.394136,
      5.30886,
      -4.31153
    ]
  }
]
