[
  { "bias": [
      0.512757,
      -0.347774,
      -0.38448,
      0.0493047,
      -0.131153,
      0.21734
    ],
    "weight": [
      0.81977,
      3.79672,
      -5.79817,
      -1.13402,
      -0.759533,
      0.300833,
      3.48386,
      -0.537932,
      4.13486,
      1.9364,
      -2.02491,
      -2.00152,
      1.45926,
      3.48386,
      -0.537932,
      4.13486,
      1.9364,
      -2.02491,
      -2.00152,
      1.45926,
      1.57046,
      -3.13824,
      1.79658,
      0.437964,
      -8.11746,
      -1.49042,
      1.45926,
      1.57046,
      -3.13824,
      1.79658,
      0.437964,
      -8.11746,
      -1.49042,
      3.07367,
      -1.93505,
      0.590167,
      -1.10034,
      3.72748,
      -1.8927,
      -1.49042,
      3.07367,
      -1.93505,
      0.590167,
      -1.10034,
      3.72748,
      -1.8927,
      3.29979,
      -3.91152,
      2.31303,
      -1.71393,
      3.34353,
      0.28337,
      -1.8927,
      3.29979,
      -3.91152,
      2.31303,
      -1.71393,
      3.34353,
      0.28337,
      1.29647,
      -2.60661,
      -1.76665,
      1.00453,
      -1.94686,
      1.19766,
      0.28337,
      1.29647,
      -2.60661,
      -1.76665,
      1.00453,
      -1.94686,
      1.19766,
      -4.05377,
      -0.875054,
      2.27274,
      3.73615,
      -0.736766,
      -2.98863
    ]
  }
]
