[
  { "bias": [
      -0.00980108,
      -0.00501243,
      -0.31705,
      0.347298,
      -0.151792,
      0.337929
    ],
    "weight": [
      -0.879556,
      2.84751,
      -2.24652,
      -2.05063,
      0.10708,
      2.65434,
      1.62268,
      -0.410048,
      5.00378,
      1.41534,
      -2.19691,
      -1.22374,
      3.50264,
      1.62268,
      -0.410048,
      5.00378,
      1.41534,
      -2.19691,
      -1.22374,
      3.50264,
      0.500406,
      -6.39458,
      3.10019,
      -1.30955,
      -5.76426,
      -0.696111,
      3.50264,
      0.500406,
      -6.39458,
      3.10019,
      -1.30955,
      -5.76426,
      -0.696111,
      2.62585,
      -1.03178,
      0.775459,
      -1.5328,
      2.30573,
      -2.23345,
      -0.696111,
      2.62585,
      -1.03178,
      0.775459,
      -1.5328,
      2.30573,
      -2.23345,
      2.1138,
      -2.16437,
      4.3644,
      -1.73913,
      2.85918,
      0.0457347,
      -2.23345,
      2.1138,
      -2.16437,
      4.3644,
      -1.73913,
      2.85918,
      0.0457347,
      -1.58978,
      3.22605,
      -1.70901,
      0.899543,
      -1.91005,
      0.842092,
      0.0457347,
      -1.58978,
      3.22605,
      -1.70901,
      0.899543,
      -1.91005,
      0.842092,
      -4.34958,
      -0.318989,
      2.03411,
      4.34548,
      -0.47185,
      -3.21805
    ]
  }
]
