[
  { "bias": [
      1.07096,
      -0.878745,
      -0.513078,
      -0.0660167,
      -0.156512,
      0.100973
    ],
    "weight": [
      0.230949,
      5.24535,
      -3.39394,
      -2.60401,
      -5.97597,
      2.30785,
      -0.87395,
      0.231315,
      11.1448,
      2.91778,
      -1.09122,
      -7.96272,
      -5.41866,
      -0.87395,
      0.231315,
      11.1448,
      2.91778,
      -1.09122,
      -7.96272,
      -5.41866,
      4.12332,
      3.78955,
      3.7717,
      -0.987997,
      -12.9223,
      -1.76695,
      -5.41866,
      4.12332,
      3.78955,
      3.7717,
      -0.987997,
      -12.9223,
      -1.76695,
      3.10149,
      -2.45286,
      2.95346,
      0.123264,
      4.58078,
      0.59757,
      -1.76695,
      3.10149,
      -2.45286,
      2.95346,
      0.123264,
      4.58078,
      0.59757,
      3.80347,
      -4.4676,
      1.83385,
      -1.73843,
      5.43265,
      0.47167,
      0.59757,
      3.80347,
      -4.4676,
      1.83385,
      -1.73843,
      5.43265,
      0.47167,
      0.816019,
      -2.85688,
      -4.51707,
      2.16975,
      -2.06099,
      -1.03407,
      0.47167,
      0.816019,
      -2.85688,
      -4.51707,
      2.16975,
      -2.06099,
      -1.03407,
      -0.301136,
      -1.89312,
      13.3541,
      -8.12544,
      7.07385,
      -2.50024
    ]
  }
]
