[
  { "bias": [
      0.980967,
      -0.882048,
      -5.33416,
      -0.0075429,
      -0.142748,
      0.0539744
    ],
    "weight": [
      -0.822771,
      4.81428,
      -11.7826,
      -1.7588,
      -5.10541,
      2.52253,
      2.13382,
      0.843762,
      2.74905,
      2.52421,
      -0.029298,
      -6.01243,
      -3.58235,
      2.13382,
      0.843762,
      2.74905,
      2.52421,
      -0.029298,
      -6.01243,
      -3.58235,
      5.68369,
      -8.40252,
      3.84742,
      -0.351415,
      -10.062,
      -3.40057,
      -3.58235,
      5.68369,
      -8.40252,
      3.84742,
      -0.351415,
      -10.062,
      -3.40057,
      2.37866,
      2.9684,
      2.3195,
      -0.452914,
      3.79825,
      -0.932366,
      -3.40057,
      2.37866,
      2.9684,
      2.3195,
      -0.452914,
      3.79825,
      -0.932366,
      1.59508,
      0.233806,
      1.1791,
      -2.1859,
      4.49599,
      0.164178,
      -0.932366,
      1.59508,
      0.233806,
      1.1791,
      -2.1859,
      4.49599,
      0.164178,
      0.293261,
      -2.74237,
      -4.12329,
      1.62223,
      -1.80216,
      -1.6158,
      0.164178,
      0.293261,
      -2.74237,
      -4.12329,
      1.62223,
      -1.80216,
      -1.6158,
      -1.50277,
      2.50608,
      10.664,
      -9.27966,
      5.25844,
      -0.867751
    ]
  }
]
