[
  { "bias": [
      -0.00632981,
      0.372539,
      -7.49101,
      -0.270098,
      0.37777,
      -0.432049
    ],
    "weight": [
      1.61463,
      1.29132,
      -11.7149,
      -0.563446,
      -1.21882,
      0.943999,
      4.51921,
      0.625035,
      1.6453,
      1.38157,
      -2.17132,
      -1.06537,
      2.72435,
      4.51921,
      0.625035,
      1.6453,
      1.38157,
      -2.17132,
      -1.06537,
      2.72435,
      -0.0140616,
      -9.14431,
      0.885038,
      -1.14755,
      -4.4231,
      -1.26281,
      2.72435,
      -0.0140616,
      -9.14431,
      0.885038,
      -1.14755,
      -4.4231,
      -1.26281,
      4.19823,
      1.36812,
      -1.37714,
      -1.53003,
      3.75568,
      -2.54686,
      -1.26281,
      4.19823,
      1.36812,
      -1.37714,
      -1.53003,
      3.75568,
      -2.54686,
      0.574546,
      1.41508,
      2.44378,
      -2.68321,
      4.23118,
      1.26048,
      -2.54686,
      0.574546,
      1.41508,
      2.44378,
      -2.68321,
      4.23118,
      1.26048,
      0.00776063,
      -1.47189,
      -1.03051,
      0.165253,
      -1.60276,
      0.876254,
      1.26048,
      0.00776063,
      -1.47189,
      -1.03051,
      0.165253,
      -1.60276,
      0.876254,
      -5.05656,
      0.650115,
      1.20394,
      4.43149,
      -0.493705,
      -4.66535
    ]
  }
]
