[
  { "bias": [
      0.542346,
      -0.568522,
      -5.2863,
      0.327148,
      -0.224499,
      0.304996
    ],
    "weight": [
      -2.06552,
      5.29295,
      -14.8693,
      -1.86509,
      -3.28283,
      3.54749,
      1.03783,
      1.01064,
      3.30822,
      1.26238,
      0.169856,
      -3.42166,
      -0.0867681,
      1.03783,
      1.01064,
      3.30822,
      1.26238,
      0.169856,
      -3.42166,
      -0.0867681,
      2.69529,
      -10.1614,
      4.64774,
      -2.29585,
      -6.13586,
      -1.74723,
      -0.0867681,
      2.69529,
      -10.1614,
      4.64774,
      -2.29585,
      -6.13586,
      -1.74723,
      1.00044,
      2.87795,
      3.01483,
      -1.5208,
      3.61421,
      -2.0378,
      -1.74723,
      1.00044,
      2.87795,
      3.01483,
      -1.5208,
      3.61421,
      -2.0378,
      1.8602,
      2.64777,
      4.14481,
      -2.10123,
      2.59507,
      0.719889,
      -2.0378,
      1.8602,
      2.64777,
      4.14481,
      -2.10123,
      2.59507,
      0.719889,
      -0.478384,
      -1.72283,
      -4.23318,
      2.16508,
      -2.44224,
      -0.057247,
      0.719889,
      -0.478384,
      -1.72283,
      -4.23318,
      2.16508,
      -2.44224,
      -0.057247,
      -3.87232,
      3.00305,
      9.48916,
      -3.34366,
      5.5551,
      -2.97917
    ]
  }
]
