[
  { "bias": [
      -0.17617,
      -0.089388,
      -0.797367,
      0.861764,
      -0.385662,
      1.01765
    ],
    "weight": [
      -3.57131,
      4.71541,
      -7.34614,
      -1.97938,
      -1.84926,
      7.55025,
      -4.48331,
      0.973467,
      33.0773,
      2.16811,
      -0.906629,
      -1.2583,
      0.234383,
      -4.48331,
      0.973467,
      33.0773,
      2.16811,
      -0.906629,
      -1.2583,
      0.234383,
      0.558329,
      -3.38817,
      12.0117,
      -5.17348,
      -4.29387,
      -0.696872,
      0.234383,
      0.558329,
      -3.38817,
      12.0117,
      -5.17348,
      -4.29387,
      -0.696872,
      0.133686,
      2.95189,
      5.24284,
      -2.23572,
      5.82217,
      -3.87558,
      -0.696872,
      0.133686,
      2.95189,
      5.24284,
      -2.23572,
      5.82217,
      -3.87558,
      3.8681,
      1.93699,
      11.3662,
      -2.48725,
      1.37918,
      1.67887,
      -3.87558,
      3.8681,
      1.93699,
      11.3662,
      -2.48725,
      1.37918,
      1.67887,
      -2.46286,
      1.55391,
      -7.69787,
      3.70954,
      -5.45298,
      3.72231,
      1.67887,
      -2.46286,
      1.55391,
      -7.69787,
      3.70954,
      -5.45298,
      3.72231,
      -6.35511,
      -0.0157802,
      12.8532,
      0.741596,
      7.63055,
      -6.44729
    ]
  }
]
