[
  { "bias": [
      0.0150176,
      0.308293,
      -5.641,
      -0.18782,
      0.318744,
      -0.384225
    ],
    "weight": [
      1.47732,
      0.897587,
      -11.7149,
      -0.559386,
      -0.770266,
      0.628627,
      3.98061,
      0.528382,
      1.6453,
      1.24216,
      -1.88038,
      -1.05252,
      2.19671,
      3.98061,
      0.528382,
      1.6453,
      1.24216,
      -1.88038,
      -1.05252,
      2.19671,
      0.247282,
      -9.14431,
      0.715074,
      -0.992379,
      -3.67981,
      -1.17664,
      2.19671,
      0.247282,
      -9.14431,
      0.715074,
      -0.992379,
      -3.67981,
      -1.17664,
      4.04302,
      1.36812,
      -1.3251,
      -1.3308,
      2.92953,
      -2.57328,
      -1.17664,
      4.04302,
      1.36812,
      -1.3251,
      -1.3308,
      2.92953,
      -2.57328,
      0.664838,
      1.41508,
      2.24109,
      -2.24571,
      3.47126,
      1.31615,
      -2.57328,
      0.664838,
      1.41508,
      2.24109,
      -2.24571,
      3.47126,
      1.31615,
      -0.0535654,
      -1.47189,
      -1.04721,
      0.0663647,
      -1.19985,
      0.7144,
      1.31615,
      -0.0535654,
      -1.47189,
      -1.04721,
      0.0663647,
      -1.19985,
      0.7144,
      -4.32534,
      0.650115,
      0.978386,
      3.68822,
      -0.227311,
      -3.91309
    ]
  }
]
