[
  { "bias": [
      1.33734,
      -1.08418,
      -0.659168,
      -0.147692,
      -0.153764,
      0.124775
    ],
    "weight": [
      0.219108,
      6.00988,
      -4.01849,
      -3.39511,
      -7.28505,
      2.39243,
      -1.05042,
      0.435976,
      12.1537,
      3.55069,
      -1.93615,
      -9.38857,
      -6.54582,
      -1.05042,
      0.435976,
      12.1537,
      3.55069,
      -1.93615,
      -9.38857,
      -6.54582,
      4.59921,
      4.54307,
      4.30815,
      -1.13743,
      -15.518,
      -1.77787,
      -6.54582,
      4.59921,
      4.54307,
      4.30815,
      -1.13743,
      -15.518,
      -1.77787,
      3.37411,
      -2.87167,
      3.44246,
      0.786993,
      5.27489,
      0.936495,
      -1.77787,
      3.37411,
      -2.87167,
      3.44246,
      0.786993,
      5.27489,
      0.936495,
      3.77256,
      -4.99805,
      2.07556,
      -1.5021,
      5.92464,
      0.414198,
      0.936495,
      3.77256,
      -4.99805,
      2.07556,
      -1.5021,
      5.92464,
      0.414198,
      0.923236,
      -3.24195,
      -4.9291,
      2.4882,
      -2.12039,
      -1.39904,
      0.414198,
      0.923236,
      -3.24195,
      -4.9291,
      2.4882,
      -2.12039,
      -1.39904,
      -0.0460536,
      -1.90899,
      15.1085,
      -9.22481,
      7.94832,
      -2.65663
    ]
  }
]
